%YAML:1.0
---
sign_detector: !!opencv-object-detector-hog
   winSize: [ 64, 64 ]
   blockSize: [ 16, 16 ]
   blockStride: [ 8, 8 ]
   cellSize: [ 8, 8 ]
   nbins: 9
   derivAperture: 1
   winSigma: 4.
   histogramNormType: 0
   L2HysThreshold: 2.0000000000000001e-01
   gammaCorrection: 1
   nlevels: 64
   signedGradient: 0
   SVMDetector: [ 2.81705465e-02, -1.25528695e-02, 1.67716164e-02,
       -6.60203248e-02, 6.97094053e-02, -3.28674704e-01, -6.93656653e-02,
       -1.43314555e-01, 1.28017530e-01, 3.61665450e-02, -2.43460909e-01,
       -4.84478176e-02, -5.23245856e-02, -1.97080635e-02,
       -3.11747491e-01, -8.22699592e-02, -2.30651088e-02,
       -1.25275850e-02, -9.54441428e-02, 3.48762237e-02, 1.76556818e-02,
       -1.87978745e-01, 7.80797675e-02, -3.31288397e-01, -2.32957993e-02,
       -1.81891799e-01, 1.10912651e-01, -3.05192489e-02, -5.08814007e-02,
       5.35004288e-02, -1.11384451e-01, 8.99349824e-02, 4.51929159e-02,
       -3.79685201e-02, 6.78461567e-02, -2.94381771e-02, 6.01084195e-02,
       -7.52202123e-02, 1.50966734e-01, -1.60378128e-01, 8.37370455e-02,
       -1.85126081e-01, 2.07173944e-01, 9.93403140e-04, 2.41222885e-02,
       -7.04106037e-03, -1.15790464e-01, -3.34298275e-02,
       -1.34740874e-01, 2.04166859e-01, -1.47060886e-01, 3.51381451e-02,
       -5.99703118e-02, 6.46998361e-02, 1.04273647e-01, -7.78446570e-02,
       1.85517088e-01, -1.69111162e-01, -8.15814957e-02, 7.90017769e-02,
       2.41709277e-02, -2.76533514e-02, 6.58679754e-02, -1.80659574e-02,
       1.84011519e-01, 7.79496729e-02, -3.36148590e-02, -1.90830976e-02,
       1.45365283e-01, 6.38662726e-02, -7.54843000e-04, -1.71536878e-01,
       8.58953893e-02, -1.39601499e-01, -2.31026277e-01, -1.07552007e-01,
       1.23071067e-01, -2.55282223e-01, -7.07101077e-02, -9.57598612e-02,
       8.12500343e-02, 2.53404342e-02, -7.72578269e-02, 3.13018146e-03,
       -2.47372031e-01, 1.13994911e-01, -2.18033060e-01, -7.70503730e-02,
       -2.51884520e-01, -7.21666589e-02, 1.03680836e-02, -1.33054987e-01,
       -6.91760108e-02, -1.46900630e-02, -2.53156126e-01,
       -1.00330964e-01, 5.45919314e-02, -7.60557204e-02, -4.52514142e-02,
       -8.53872895e-02, -2.51516066e-02, -2.41812002e-02, 9.68488306e-03,
       -8.50678235e-02, 1.37706906e-01, -3.49906981e-02, -2.77845636e-02,
       -2.65287329e-02, -1.04198702e-01, -2.09853545e-01, 5.05002514e-02,
       -2.30479598e-01, 3.67637277e-02, -1.59304142e-01, 4.70338576e-02,
       -9.45425555e-02, 2.34483462e-02, 4.47184369e-02, -9.40425023e-02,
       -1.85342655e-02, -3.37486446e-01, -6.51167519e-03,
       -1.03731140e-01, -4.32721823e-02, -2.35866055e-01, 4.91735525e-03,
       -6.65863082e-02, -1.57683030e-01, -1.15923099e-01,
       -5.79836853e-02, -3.28683527e-03, -1.31509453e-01,
       -6.97646514e-02, 4.67417849e-04, 8.66455678e-03, -1.12536242e-02,
       -3.56595591e-02, -2.05427445e-02, -1.14952195e-02,
       -1.28247604e-01, -2.77115777e-03, -3.64935920e-02,
       -1.03226975e-02, 3.89485471e-02, -2.35533025e-02, -1.07146828e-02,
       -9.35565755e-02, -1.84494779e-01, 1.45475075e-01, -8.45428780e-02,
       4.90872338e-02, -2.61243641e-01, 2.23223716e-02, 8.75945017e-02,
       -6.22470230e-02, -1.07598662e-01, -1.88684851e-01, 7.49915615e-02,
       2.98728235e-02, 1.98216707e-01, -1.68598056e-01, -1.13501638e-01,
       1.23156598e-02, -1.24006964e-01, -1.82405524e-02, -4.73761335e-02,
       7.25427717e-02, -9.69531238e-02, -9.35838372e-02, -1.51583608e-02,
       1.34800524e-01, 1.30893901e-01, -4.73187976e-02, 1.41219959e-01,
       5.70205450e-02, 9.15109441e-02, 5.39393313e-02, 1.49898941e-03,
       1.15464136e-01, 5.55653423e-02, 1.22413754e-01, 1.52629346e-01,
       3.34130088e-03, 4.51929942e-02, -3.25620621e-02, 1.26471475e-01,
       -1.90296508e-02, 2.06197775e-03, -4.39396724e-02, -2.02948470e-02,
       3.10950782e-02, -1.16042355e-02, -2.77626067e-01, 5.67956977e-02,
       2.13146862e-02, 1.56363428e-01, 6.28839061e-02, -1.28180802e-01,
       2.56902337e-01, 5.09393401e-02, 1.26354605e-01, 1.17215969e-01,
       4.86056320e-02, 4.82693389e-02, 6.84354752e-02, 8.44922066e-02,
       1.11817807e-01, -5.46594262e-02, 4.24503982e-02, 5.01521453e-02,
       1.15670040e-02, 1.70372829e-01, 6.07409775e-02, 4.30971473e-01,
       4.46605310e-02, -2.34951805e-02, 5.26077375e-02, -4.43394408e-02,
       -6.32639043e-03, -2.16408134e-01, 8.47363025e-02, -1.27000660e-01,
       -1.91272795e-02, -1.99585468e-01, -1.02106892e-02, 6.92146719e-02,
       -2.33138248e-01, -1.78814024e-01, -5.38484931e-01,
       -1.56866267e-01, -1.66569680e-01, 1.08800434e-01, -3.25524211e-01,
       -4.98577245e-02, -3.32264416e-02, -1.08074090e-02,
       -9.18192491e-02, 4.10502143e-02, 1.20394036e-01, -1.95442736e-01,
       -1.34040520e-01, -6.02857471e-02, 1.29969925e-01, 1.51937932e-01,
       -1.56931207e-01, -3.25036086e-02, -9.56852734e-02, 8.91343430e-02,
       -7.15828175e-03, -2.43825056e-02, -9.89170820e-02,
       -9.58596915e-03, -8.62132981e-02, -6.31094910e-03, 6.66769817e-02,
       -2.96438728e-02, -7.92279933e-03, -8.96806419e-02, 5.92889674e-02,
       -1.01965792e-01, -1.42649949e-01, -4.83600497e-02,
       -2.74546266e-01, -2.20077690e-02, -6.92936108e-02,
       -9.53223631e-02, -1.89346731e-01, -2.95977201e-02, 1.38679836e-02,
       -2.94664176e-03, -1.17762694e-02, -6.56631775e-03,
       -3.63491364e-02, 8.77721310e-02, -1.16960041e-01, -2.54623890e-01,
       -8.32907334e-02, 1.22727521e-01, -9.06882361e-02, 1.74425960e-01,
       1.66919336e-01, 7.35760480e-02, -4.74382155e-02, 2.21612617e-01,
       -6.86450163e-03, 4.05461416e-02, 1.37123808e-01, 1.06531866e-01,
       -1.11638017e-01, -1.71127051e-01, 3.39056924e-02, -5.69511019e-03,
       -1.91682223e-02, 5.80791049e-02, 7.98917860e-02, -2.61796117e-02,
       6.27767593e-02, -9.95125994e-02, -1.86317608e-01, -1.81471440e-03,
       3.46500687e-02, -1.01864681e-01, 4.21482809e-02, -5.54014137e-03,
       -9.03647467e-02, -4.08141129e-02, 2.72777136e-02, -6.26403242e-02,
       7.58496448e-02, 1.42954931e-01, -5.53707927e-02, -6.61209896e-02,
       6.87738433e-02, 2.08074171e-02, 7.57563189e-02, 1.32418141e-01,
       1.45023242e-02, 1.80000693e-01, 4.41249162e-02, 2.20794484e-01,
       6.15120307e-02, -5.79142161e-02, 1.05304539e-01, 2.12528214e-01,
       1.16454829e-02, -1.41066432e-01, 1.99332237e-02, -7.16130584e-02,
       -1.37856573e-01, -2.66230723e-04, -1.06283091e-03,
       -1.63831055e-01, -1.97802298e-02, 6.31998256e-02, 4.36946331e-03,
       4.67993282e-02, -3.94479707e-02, 3.68125848e-02, -7.32579678e-02,
       -1.22401705e-02, -1.92666352e-01, -9.13773999e-02,
       -6.59723440e-03, 9.34148789e-04, 2.48008166e-02, -2.82739043e-01,
       -1.29424423e-01, -2.64243763e-02, -8.09081644e-03,
       -9.54656154e-02, -4.30426374e-02, -6.86546415e-02, 6.29432946e-02,
       -2.03356594e-02, 2.84332111e-02, 1.00915030e-01, 7.48354122e-02,
       -1.07194344e-02, 3.09859272e-02, 1.59137860e-01, 7.97654092e-02,
       7.02062100e-02, 3.42124850e-02, -9.16675478e-02, 2.92447973e-02,
       -1.08772673e-01, -2.05953121e-02, -1.33213460e-01,
       -9.73995924e-02, -1.27443179e-01, -1.93742160e-02, 1.43524529e-02,
       6.10508695e-02, 1.28763039e-02, -1.77681804e-01, -2.92890575e-02,
       -5.84274195e-02, -6.95825070e-02, -8.53849649e-02, 4.74516936e-02,
       -4.82555628e-02, -6.59573525e-02, -1.88528728e-02,
       -3.41745853e-01, -6.85643703e-02, 1.69995036e-02, -9.37038511e-02,
       -8.52598175e-02, -1.51510179e-01, 1.36762246e-01, -6.63159639e-02,
       -3.85204982e-03, 5.45645785e-03, -2.30717119e-02, -4.27360795e-02,
       7.17196167e-02, -1.60389282e-02, -2.85386983e-02, -3.84707153e-02,
       -7.34760016e-02, 1.15176011e-03, -1.38364732e-01, 5.36234817e-03,
       3.77220362e-02, 1.97882652e-02, -3.00510265e-02, 6.61444217e-02,
       -1.74267158e-01, 1.27284706e-03, 5.24800606e-02, -2.27004230e-01,
       -8.54828432e-02, -7.15040639e-02, 2.05535609e-02, -1.23872466e-01,
       -8.33226070e-02, -1.06907235e-02, -2.08782524e-01,
       -9.45578516e-03, -9.38880146e-02, -5.09204604e-02, 6.87517077e-02,
       -6.17266782e-02, 2.11619079e-01, 4.37538177e-02, 2.10057840e-01,
       3.88003066e-02, 1.74844623e-01, 4.82379459e-02, 8.35489556e-02,
       1.08855635e-01, 3.90256681e-02, 3.68417725e-02, -1.18160238e-02,
       6.66692555e-02, -4.31276336e-02, -3.96204293e-02, -1.30319834e-01,
       -1.41944056e-02, -3.85369323e-02, 1.77110657e-02, -1.91248655e-01,
       -1.59019858e-01, -9.05606803e-03, -1.99789822e-01,
       -1.06558055e-01, -1.99058250e-01, 7.00403079e-02, -1.08279414e-01,
       -2.72695627e-02, 1.01091348e-01, 1.63248673e-01, 1.98185623e-01,
       1.57623813e-01, -9.02891159e-02, 7.35974014e-02, 1.18151091e-01,
       1.75232980e-02, -2.82501038e-02, 9.66728106e-02, 1.99828267e-01,
       3.30000371e-01, -2.94665970e-05, 1.42454356e-01, 8.98504853e-02,
       1.38474420e-01, 3.29845726e-01, 7.12991208e-02, -4.59282063e-02,
       -1.06944203e-01, -4.99439165e-02, -4.87080961e-02,
       -9.20522958e-03, 1.15160309e-02, -1.30969793e-01, -3.52195427e-02,
       -3.03970370e-02, 2.34877542e-02, -2.43989587e-01, -2.23864004e-01,
       -2.49939770e-01, -1.72587126e-01, 1.08840810e-02, -1.69839233e-01,
       -2.16305107e-01, -5.38549051e-02, 1.37946099e-01, -5.02561405e-03,
       1.26846522e-01, -1.79330260e-02, 7.34838992e-02, -5.25394380e-02,
       6.81995600e-02, -2.79323547e-03, -7.20237494e-02, 1.37330309e-01,
       6.74489141e-02, -1.41983936e-02, -7.24247247e-02, 2.05665499e-01,
       3.66495252e-02, 9.49807987e-02, -3.96003276e-02, 6.02780282e-03,
       5.21801189e-02, -9.41257030e-02, 4.29683328e-02, 7.77755752e-02,
       3.51876840e-02, 4.45348397e-03, 3.54166105e-02, -1.81484725e-02,
       8.23489577e-02, 7.27582276e-02, 9.83847380e-02, -1.50961988e-02,
       1.47230169e-02, 1.68156862e-01, 5.82791045e-02, 7.54749477e-02,
       -4.77274768e-02, 1.39548397e-03, -4.60929833e-02, -7.84179382e-03,
       6.07593395e-02, 1.88439023e-02, -2.02937439e-01, -6.68315366e-02,
       8.67665634e-02, 4.60034562e-03, -4.12572809e-02, 1.83523118e-01,
       -1.91013608e-02, 1.30268157e-01, -5.73938414e-02, 2.19422832e-01,
       -8.32221806e-02, 5.86665161e-02, 2.84235403e-02, 1.35129750e-01,
       2.69529093e-02, 5.15318625e-02, -1.14765912e-02, 8.33848268e-02,
       1.64472926e-02, 2.00115442e-02, 1.29766658e-01, 5.26707098e-02,
       -4.68266755e-02, -7.18487799e-03, 6.55812696e-02, -1.06256893e-02,
       1.50133550e-01, 7.55286068e-02, -6.58027902e-02, 3.53222117e-02,
       4.48043749e-04, -2.12308645e-04, 1.10869482e-01, -8.90024155e-02,
       1.14989348e-01, -6.69319630e-02, -9.14601535e-02, -1.95452720e-02,
       2.94598695e-02, 2.25813001e-01, 1.37403265e-01, 2.07126573e-01,
       1.11927494e-01, 2.52731383e-01, -1.43628001e-01, 1.88639179e-01,
       2.21505374e-01, 4.12003547e-02, 7.60816783e-02, 2.53970087e-01,
       6.85314611e-02, 1.31818429e-01, -8.74063969e-02, 8.05033445e-02,
       5.76121211e-02, -1.31386062e-02, 1.68325365e-01, -2.85899993e-02,
       3.36226150e-02, -4.96545397e-02, 1.44844383e-01, -1.50588423e-01,
       1.09401204e-01, 1.30221561e-01, 1.58104692e-02, 3.45126875e-02,
       -2.35933885e-02, 1.33478567e-01, -5.03132492e-02, -5.61228544e-02,
       -5.67020662e-02, -8.39733183e-02, -1.01456277e-01, 9.18290541e-02,
       -2.87790094e-02, 1.03306398e-02, -1.76613289e-03, 7.43670687e-02,
       -4.77097332e-02, -9.70474780e-02, 1.62206441e-01, 3.16141754e-01,
       -1.19638406e-02, -1.48814633e-01, 6.53478578e-02, 1.75514147e-01,
       -3.96257313e-03, 1.70309678e-01, -1.49387438e-02, 1.02369022e-02,
       6.39007688e-02, -4.16847914e-02, 1.82427481e-01, -2.75074020e-02,
       -2.10758988e-02, 3.53431888e-02, 9.04993787e-02, 1.34092495e-01,
       5.37079610e-02, 9.76184662e-03, 1.64468393e-01, 1.34391282e-02,
       -7.07812384e-02, 3.40072997e-02, 9.64307189e-02, -1.18331045e-01,
       -1.10495038e-01, -8.80268440e-02, -4.85244729e-02,
       -2.05607474e-01, -6.48317486e-02, -1.23972028e-01,
       -5.53469136e-02, 2.18306363e-01, -1.13835469e-01, 1.12957604e-01,
       -1.18073970e-02, 1.72257856e-01, 7.05226734e-02, 1.04967482e-01,
       4.88915620e-03, 2.82135308e-01, -1.98631193e-02, 6.34369999e-02,
       1.96878449e-03, -3.54106240e-02, 9.89306122e-02, 7.05365390e-02,
       -5.39062023e-02, -3.24239470e-02, -2.31945841e-03, 2.01852739e-01,
       -1.01092510e-01, 7.41147855e-03, 8.47449750e-02, 2.58938968e-01,
       1.66351572e-01, 2.42308509e-02, 4.86858822e-02, 6.10867627e-02,
       -6.03828728e-02, 6.75075129e-03, -6.52204901e-02, -1.83642339e-02,
       -2.03624144e-02, -9.89044905e-02, -1.48943871e-01, 9.49774031e-03,
       -5.47254086e-02, 7.97106102e-02, 7.93086439e-02, 8.33723322e-02,
       2.86609113e-01, 1.15525916e-01, 3.84724773e-02, 8.66603628e-02,
       1.91698015e-01, 2.16500267e-01, 1.71780691e-01, 3.31201181e-02,
       1.48383245e-01, 1.23628773e-01, 2.40377318e-02, 2.69663393e-01,
       1.29960135e-01, -4.32311967e-02, 4.43264320e-02, 1.09937683e-01,
       -3.33772860e-02, 1.46406487e-01, 1.17223062e-01, 1.80272996e-01,
       9.89200473e-02, 5.58656268e-02, 1.44101307e-01, 8.83868784e-02,
       1.86996028e-01, 3.92533466e-02, 9.33582112e-02, 1.13134004e-01,
       -1.47662997e-01, -1.84446480e-03, 7.66500533e-02, -7.26513639e-02,
       2.63863862e-01, 9.93804038e-02, 1.66523859e-01, 2.10813075e-01,
       -3.56113799e-02, 1.30699292e-01, 2.13835225e-01, 1.93691343e-01,
       9.31342170e-02, 3.68266366e-02, 8.73072892e-02, -1.01669937e-01,
       -1.09733865e-01, 3.00937537e-02, 4.69869003e-02, -6.11612108e-03,
       -9.98974815e-02, -6.73075765e-02, -2.37890463e-02,
       -1.13793304e-02, -1.58779755e-01, -7.15266392e-02, 2.84690317e-02,
       -8.07745382e-02, -1.42331064e-01, -1.05461225e-01,
       -2.65429486e-02, 1.44918472e-01, 2.31814310e-02, -4.91103306e-02,
       -1.92616135e-01, -5.77548053e-04, 1.63462967e-01, -1.63403724e-03,
       -2.99930453e-01, -2.32612103e-01, 7.87787884e-02, 2.51734287e-01,
       1.74526568e-03, -2.49192446e-01, 1.22287884e-01, 3.68389189e-02,
       2.56461706e-02, 4.10412066e-02, 2.99065188e-02, 1.58486381e-01,
       -7.70278350e-02, 8.85549039e-02, 1.10138841e-01, -3.28957699e-02,
       -7.80645711e-03, 2.21618265e-02, 2.04239011e-01, -2.48442162e-02,
       -9.29701999e-02, 4.12207507e-02, 7.76437595e-02, 1.12278804e-01,
       9.41090807e-02, 5.98863438e-02, -8.98188874e-02, 1.05899774e-01,
       -4.21340987e-02, -1.32025018e-01, -3.03625911e-02,
       -3.09256971e-01, 1.06835231e-01, -6.51694760e-02, -1.85672581e-01,
       -7.42056072e-02, 4.74117845e-02, -2.62957048e-02, 8.19643140e-02,
       -4.53065261e-02, 9.56089348e-02, 6.94457665e-02, -4.98413369e-02,
       5.07152751e-02, 6.83923066e-02, -1.42534420e-01, 8.93720314e-02,
       2.64806263e-02, 7.46368095e-02, -2.76283771e-02, 1.04120467e-02,
       1.13711454e-01, 5.59221134e-02, 1.41457170e-01, 1.36785045e-01,
       2.99522057e-02, -3.76784764e-02, -7.55922869e-02, -5.50659038e-02,
       1.20870411e-01, 1.90108344e-01, 7.27958754e-02, -8.79519153e-03,
       -2.39753667e-02, -1.11029759e-01, 3.67961475e-03, -2.19138488e-02,
       -1.32564187e-01, -1.17418028e-01, 4.86136004e-02, -3.92553098e-02,
       -6.88939393e-02, 2.27365363e-02, 3.65558937e-02, 8.84394813e-03,
       8.89418945e-02, 1.68478906e-01, -7.50536248e-02, 2.11528745e-02,
       -3.84355225e-02, 5.23868427e-02, 1.93736598e-01, 4.60929871e-02,
       -1.35938842e-02, -1.07751541e-01, -3.29740308e-02, 6.03021048e-02,
       -9.14764032e-02, -2.19470747e-02, 1.16401743e-02, 1.05555266e-01,
       -1.81299821e-02, -1.68101326e-01, -1.39475375e-01,
       -2.27396674e-02, -5.16514257e-02, -7.87432715e-02,
       -4.35678624e-02, 3.63345891e-02, 9.35249031e-02, 7.24057201e-03,
       -2.34784663e-01, -1.11285478e-01, -4.29090708e-02, 6.39770478e-02,
       -3.36478427e-02, -3.93997550e-01, -1.97399586e-01,
       -2.45234277e-02, -1.57705694e-01, -9.63173360e-02,
       -1.33535460e-01, -2.86170412e-02, -3.86558217e-03,
       -9.56325009e-02, 2.56814975e-02, -9.56363138e-03, -8.46921094e-03,
       -7.44161475e-03, 1.73859939e-01, -9.65834931e-02, 2.05033533e-02,
       -3.90276425e-02, 1.82848312e-02, -9.35811549e-02, -4.40157801e-02,
       -6.10505380e-02, -5.07826582e-02, -1.76217228e-01,
       -4.91315424e-02, 6.81560338e-02, 8.86505395e-02, 2.22909916e-02,
       1.31813258e-01, -1.73718348e-01, 1.92193985e-02, -9.25211161e-02,
       -1.39099836e-01, -4.73870412e-02, -2.30841152e-02,
       -1.99909866e-01, -4.70466837e-02, -1.82504714e-01,
       -1.95153430e-01, -2.05498621e-01, -2.63135675e-02,
       -1.63704157e-01, 3.02008763e-02, 1.72572181e-01, -1.10266045e-01,
       -1.29877627e-01, -1.32765159e-01, 1.17174372e-01, 2.03168720e-01,
       2.77357902e-02, 1.48930907e-01, -4.19440642e-02, 1.26451403e-01,
       -4.60515060e-02, -8.39360282e-02, -2.44420301e-03,
       -6.19063042e-02, -4.74946611e-02, -4.92573529e-02,
       -8.26361552e-02, -7.47083351e-02, 1.20786212e-01, 1.39400139e-01,
       -1.83644906e-01, -2.77081262e-02, -8.69972855e-02, 1.86932325e-01,
       9.79654677e-03, -4.41014171e-02, -9.38313976e-02, 5.92048094e-03,
       -1.13818079e-01, -1.70753211e-01, -2.28626549e-01,
       -3.96394208e-02, -7.36995414e-02, -1.47839606e-01, 3.94650847e-02,
       1.75145604e-02, 1.41468216e-02, 1.76757842e-01, -2.96752993e-02,
       1.46303609e-01, 3.93638723e-02, 1.46242604e-01, 7.32641295e-02,
       4.64979522e-02, -5.23945177e-03, 1.16460532e-01, 2.46197786e-02,
       -7.05741942e-02, -3.40194702e-02, 1.42712861e-01, 1.13543533e-01,
       -1.88982207e-02, 2.34131683e-02, -1.58606067e-01, -4.93181013e-02,
       2.91875936e-02, -7.01929331e-02, -3.88339609e-02, 1.16400391e-01,
       1.63454086e-01, 1.07727423e-01, -1.03415083e-02, 4.78253439e-02,
       1.10156201e-01, -2.94685382e-02, 3.38837039e-03, 5.67235276e-02,
       1.63198579e-02, 8.16470832e-02, 1.15294068e-03, -1.00441322e-01,
       -6.54108152e-02, -4.72925641e-02, 3.54326248e-01, 2.58999877e-02,
       -9.70744267e-02, 8.03923309e-02, 2.38021135e-01, 2.46503681e-01,
       -1.12437412e-01, -4.93171625e-04, 4.18365374e-02, -1.21007606e-01,
       -4.45043407e-02, 9.88540426e-02, 9.37564820e-02, -8.92247818e-03,
       -1.07436597e-01, 1.02900844e-02, 1.47660956e-01, -1.82903167e-02,
       -2.68202037e-01, 1.18198171e-01, 1.10379443e-01, -1.01580525e-04,
       2.30472647e-02, -1.34265482e-01, -6.13983274e-02, -6.92278966e-02,
       -1.21035099e-01, -9.28824469e-02, -1.93220302e-01,
       -3.42642218e-02, -1.32773355e-01, -1.63883448e-01,
       -1.58326119e-01, -7.01302290e-03, -8.30311403e-02,
       -1.07323937e-01, -5.90812862e-02, 8.70424975e-03, -1.70387805e-01,
       -8.08696821e-02, 3.93397808e-02, -9.06221494e-02, -2.19120890e-01,
       2.72020251e-02, -1.30327135e-01, 5.55127412e-02, 3.20677869e-02,
       -6.84270188e-02, 1.53840622e-02, 7.59057775e-02, -5.00358269e-02,
       3.88326426e-03, -4.72860746e-02, 2.59755328e-02, 8.14365149e-02,
       6.70685396e-02, 1.03402376e-01, -4.44427691e-02, 5.40742800e-02,
       -3.06446012e-02, -1.53920382e-01, -5.07861562e-02,
       -1.04211077e-01, -9.05755833e-02, 2.25269552e-02, -2.58155614e-01,
       -2.53418565e-01, -6.40452355e-02, -1.87328234e-02,
       -1.59105346e-01, -1.87090501e-01, 3.38798761e-02, -5.03347926e-02,
       1.15277581e-02, 9.89579111e-02, 8.61534029e-02, -5.56000173e-02,
       6.47379905e-02, 8.42840876e-03, -3.76531333e-02, 4.73024547e-02,
       6.11790009e-02, 1.01549983e-01, 1.55837741e-02, -6.28848150e-02,
       3.20296362e-02, -7.93440454e-03, 4.56840396e-02, 7.76200832e-05,
       -8.70662555e-02, 6.51341304e-02, -2.84467787e-02, -5.29162027e-02,
       -5.59037970e-03, 1.86181795e-02, 7.05511793e-02, -2.12904699e-02,
       -8.02171379e-02, 2.54528504e-02, -1.04554079e-01, 3.50315124e-02,
       -6.71995953e-02, 4.97250296e-02, -4.68599014e-02, -2.93485261e-02,
       4.66144010e-02, 7.50180185e-02, 2.02832803e-01, 1.55195743e-01,
       -1.70241311e-01, 1.49238795e-01, 8.05418473e-03, 2.48555336e-02,
       -1.27421558e-01, 4.43344936e-02, -4.00551781e-02, -1.81142583e-01,
       -6.09958842e-02, 1.24638267e-02, -8.40453990e-03, -1.63359251e-02,
       1.27981314e-02, -4.92343716e-02, 2.31666025e-03, -3.19105573e-02,
       -1.87239259e-01, -3.08171995e-02, 5.52468784e-02, 5.14240861e-02,
       -5.51709794e-02, -5.47787920e-02, 2.26254552e-03, -6.64084926e-02,
       -3.48390751e-02, -1.37046784e-01, -3.40299867e-02,
       -1.09240271e-01, -2.21344223e-03, -2.16890246e-01,
       -1.45896226e-01, -2.86046624e-01, -1.03505580e-02, 4.82765883e-02,
       -8.21220037e-03, 1.32030144e-01, 1.22982478e-02, 1.24782443e-01,
       -4.06806879e-02, -6.20013364e-02, 3.70596051e-02, 1.85864195e-02,
       5.74806444e-02, -8.97367150e-02, -8.51031169e-02, 6.96569160e-02,
       -5.90730980e-02, -5.05048446e-02, 8.28007876e-04, -5.60552021e-03,
       -1.92820951e-01, 6.05785463e-05, 5.21819629e-02, 2.77764406e-02,
       -3.35358060e-03, 3.00487224e-02, -1.31230175e-01, -3.23624499e-02,
       5.60599230e-02, 3.26640136e-03, -9.89503786e-02, -6.65372796e-03,
       -1.67460248e-01, -1.56279922e-01, -9.73248780e-02,
       -3.57897766e-02, -1.45663351e-01, 6.64589577e-04, -3.56447637e-01,
       1.39931530e-01, -1.73611477e-01, -3.58595997e-02, -1.71698198e-01,
       8.88467431e-02, -2.09205132e-02, 4.56704386e-02, -1.62970915e-03,
       6.02915734e-02, 9.16105583e-02, 1.62623972e-01, 9.25479010e-02,
       -6.57046139e-02, -7.35764652e-02, -4.21992019e-02,
       -9.31578875e-02, 3.28045860e-02, -8.95098299e-02, 1.44439489e-01,
       7.36117288e-02, -9.21411254e-03, 4.58521768e-03, 6.89379349e-02,
       6.88514784e-02, -2.55596358e-02, 3.56297083e-02, -5.27863624e-03,
       -1.26578420e-01, -1.39348671e-01, -8.15944001e-02,
       -6.40682802e-02, -2.47716516e-01, -1.74277842e-01,
       -2.03347787e-01, 9.68559012e-02, -2.36121699e-01, 2.77184155e-02,
       3.49527085e-03, 5.31628057e-02, -5.74235208e-02, 3.28393467e-03,
       -3.25501859e-02, 6.67051896e-02, 1.03581823e-01, -8.05395991e-02,
       6.36276677e-02, 1.67125568e-01, -5.82475811e-02, 2.73184311e-02,
       1.75815709e-02, 2.63630915e-02, 3.12751271e-02, -3.21901739e-02,
       1.85729321e-02, -1.12225441e-02, 2.34413296e-02, 1.40255010e-02,
       -1.89287663e-02, 1.37043580e-01, -1.00713335e-01, 1.06292153e-02,
       -1.03304744e-01, 1.46711931e-01, -5.12465313e-02, 1.17878467e-01,
       -1.10652179e-01, -9.49073136e-02, -8.93705785e-02,
       -2.52978038e-02, 2.81140842e-02, 7.89724663e-03, -2.23468263e-02,
       -4.75582341e-03, 1.56587660e-01, 1.92986682e-01, -1.34734586e-01,
       -5.55730388e-02, 1.95457153e-02, 1.22947551e-01, 1.21691518e-01,
       -9.22959074e-02, -6.20079860e-02, 7.09896162e-02, -5.01167700e-02,
       -1.35359958e-01, 1.16632640e-01, 2.28135940e-02, -4.70890552e-02,
       -1.67387664e-01, 4.57081832e-02, -1.18092448e-01, -1.39935464e-01,
       -1.33554444e-01, -1.20774843e-01, -1.39931768e-01, 1.56144410e-01,
       -1.13520972e-01, -1.57420665e-01, -4.33941148e-02,
       -8.33860263e-02, -1.45354688e-01, -4.17378247e-02,
       -1.20108083e-01, -1.93962306e-02, -1.48032874e-01,
       -1.81180716e-01, -8.24671239e-02, -2.41254326e-02,
       -4.83052507e-02, -6.61239922e-02, 1.30814537e-01, -6.93859458e-02,
       -1.47148326e-01, 7.12360069e-03, 1.57071855e-02, -2.43239161e-02,
       8.25124793e-03, 1.44065604e-01, -7.68723190e-02, 6.94166776e-03,
       -8.59982297e-02, -7.21658468e-02, -3.38968560e-02, 4.44112234e-02,
       -7.89028853e-02, -3.39906104e-02, -2.52237897e-02,
       -1.36508152e-01, -1.67586178e-01, -3.50618735e-02, 9.54613611e-02,
       -4.33832705e-02, -3.32032368e-02, -2.65544951e-02, 7.50539601e-02,
       -2.65422855e-02, -3.62161063e-02, 2.70271208e-02, -6.13473430e-02,
       -6.54085577e-02, 5.05772308e-02, -1.27351597e-01, -9.84610692e-02,
       -2.15103813e-02, -1.48611264e-02, 1.07601836e-01, 2.86958199e-02,
       7.74417371e-02, 2.93123841e-01, 3.03825811e-02, -9.27640311e-03,
       6.55314475e-02, -3.57974842e-02, 5.33024035e-03, 1.38898492e-01,
       -5.95107116e-02, 4.25164290e-02, 1.08603679e-01, 1.07623309e-01,
       7.07390085e-02, -8.00698809e-03, 3.31475213e-02, 4.95965779e-02,
       -3.73344645e-02, 1.47709787e-01, 5.02749495e-02, -2.93761045e-02,
       -1.12165865e-02, -4.43759896e-02, -1.17391229e-01,
       -4.20421511e-02, 2.66493186e-02, 1.61906376e-01, 7.50407483e-03,
       1.50809273e-01, -1.17829658e-01, -5.51999733e-02, 1.40748158e-01,
       -4.87680994e-02, 6.22250214e-02, 1.65124267e-01, -5.60797472e-03,
       7.22044334e-02, 1.23260915e-01, 1.34216741e-01, 6.48925602e-02,
       2.14308590e-01, 3.78814191e-02, 5.88168241e-02, -4.81920578e-02,
       -5.17685637e-02, 1.00148460e-02, -6.68299571e-02, 5.18148355e-02,
       -4.05742899e-02, 2.42529158e-02, -1.09312296e-01, -3.65272583e-03,
       -2.80568134e-02, -1.85626596e-02, -4.07116599e-02, 2.19528805e-02,
       -9.10322368e-02, -6.92713410e-02, 1.78472832e-01, -1.25559373e-02,
       -2.42598429e-02, -1.61525443e-01, -3.81845236e-02,
       -7.71912634e-02, -1.60944149e-01, -8.70697573e-02,
       -1.62858024e-01, -2.09503785e-01, -1.56383440e-01,
       -1.15726851e-01, 1.29356965e-01, 4.52972669e-03, 1.38038442e-01,
       -2.77609434e-02, -2.70062545e-03, -4.45315540e-02, 1.28120212e-02,
       -2.01737089e-03, -2.20200326e-02, -1.39046619e-02, 8.58160406e-02,
       4.61279117e-02, -8.42477102e-03, -4.16153632e-02, -2.35700738e-02,
       4.98781465e-02, -8.79901182e-03, -6.94413036e-02, -3.86275984e-02,
       1.74495447e-02, 9.37353373e-02, 1.13167137e-01, 5.33430018e-02,
       1.05578883e-03, -1.36153564e-01, -5.29766157e-02, 1.44930854e-01,
       -6.97342446e-03, -3.66683602e-02, 6.15498610e-03, -1.16122238e-01,
       -1.31147474e-01, -2.49034822e-01, -5.51956259e-02,
       -4.59942296e-02, -2.22154945e-01, 1.81435108e-01, 1.22341014e-01,
       1.69064328e-02, 4.46363837e-02, -1.14623327e-02, -1.73578739e-01,
       8.86046216e-02, 1.03095518e-02, 1.73083246e-01, 3.82346381e-03,
       -4.22419049e-02, 1.50854718e-02, 1.04036398e-01, -1.71202775e-02,
       -8.42915401e-02, -9.26160067e-02, -5.36556579e-02,
       -4.47452441e-02, 1.47413224e-01, -1.06237188e-01, -1.14390172e-01,
       2.68295527e-01, 6.51029646e-02, -1.70451775e-01, -7.19557256e-02,
       -7.58718373e-03, -6.33670017e-02, -8.48473608e-02,
       -3.27319689e-02, -2.91452736e-01, -9.55485106e-02,
       -1.54084191e-01, -1.33202478e-01, -1.05354510e-01,
       -1.82383507e-01, -2.94059664e-01, 1.80199608e-01, 1.25642885e-02,
       3.09696738e-02, 1.68384135e-01, -1.78915113e-02, 1.20350987e-01,
       1.75472885e-01, 3.01124245e-01, 5.87142780e-02, -8.27077702e-02,
       2.75806766e-02, -1.22738428e-01, 3.01019102e-02, 5.60748614e-02,
       -5.88414259e-02, 6.40773177e-02, 6.48276433e-02, -1.46856323e-01,
       -1.13782957e-01, -1.80294245e-01, -2.74507925e-02, 5.42039685e-02,
       -8.55065510e-02, -2.00060546e-01, 1.42160952e-01, 2.56864466e-02,
       -1.83064550e-01, -1.70424357e-01, 5.34768589e-02, -1.68809012e-01,
       -6.86309189e-02, 1.26319736e-01, -6.27420694e-02, 2.84732897e-02,
       9.55991447e-02, -1.08055994e-01, 1.04710646e-01, 7.84321949e-02,
       2.55034328e-01, -7.06718639e-02, -6.09311089e-02, -1.51008746e-04,
       2.89703923e-04, 3.98930497e-02, 1.19910091e-01, 1.37718439e-01,
       -6.03662096e-02, -8.90557468e-02, 2.07969956e-02, -3.11273728e-02,
       -1.06262796e-01, 2.31552608e-02, 1.72704533e-02, -7.32979327e-02,
       1.44822285e-01, -9.24340561e-02, -6.52389973e-02, -1.57777704e-02,
       1.58234447e-01, -9.81956944e-02, -2.55215764e-01, -8.93559828e-02,
       -6.19342104e-02, 2.54470501e-02, -2.27486491e-02, -7.03649670e-02,
       -1.32060632e-01, -5.27082980e-02, -1.67744890e-01,
       -6.22998737e-02, 6.01171739e-02, -1.01471670e-01, 1.91551194e-01,
       -1.05174571e-01, -1.88470826e-01, 3.89167108e-02, -5.53522073e-02,
       -8.57557282e-02, 9.32254596e-04, -3.67269479e-02, -9.13343802e-02,
       1.40243499e-02, 6.57973513e-02, 1.89850211e-01, -2.11662333e-03,
       -7.92665333e-02, 2.33757924e-02, 5.26980236e-02, -6.42010272e-02,
       7.60657936e-02, -3.22584510e-02, -1.70421544e-02, 6.91910014e-02,
       1.04657955e-01, 1.31390467e-01, -9.04864743e-02, -4.35955189e-02,
       7.51977339e-02, 1.35292798e-01, -3.46205719e-02, -1.10086225e-01,
       -7.61933923e-02, -1.66947693e-01, -2.61321723e-01, 1.06723793e-02,
       -1.44646749e-01, -8.24960098e-02, 6.24656118e-02, 4.32751328e-03,
       1.92986839e-02, 7.41833299e-02, 8.28819573e-02, 4.10715967e-01,
       1.25601247e-01, 1.64361652e-02, 5.70812933e-02, -1.46980118e-02,
       1.27202064e-01, 1.64601430e-01, 7.08311722e-02, 1.74816981e-01,
       -4.08726409e-02, 8.24426115e-02, 9.34034586e-02, -4.89858016e-02,
       1.04367442e-01, -1.04405284e-01, 6.90701902e-02, 8.45515504e-02,
       1.03541180e-01, 1.80409607e-02, 4.90596816e-02, 7.20781460e-02,
       -6.54230788e-02, 1.13417916e-01, 5.13760038e-02, -1.16811031e-02,
       1.21232696e-01, 1.14125364e-01, 5.19832298e-02, -3.06086466e-02,
       -8.02337527e-02, -4.59277891e-02, 2.08187010e-02, 5.58531210e-02,
       -1.72711492e-01, 1.38676241e-01, -5.55798151e-02, 1.13774188e-01,
       2.84200639e-01, 6.42525703e-02, -7.34783038e-02, 4.92769554e-02,
       -7.38108456e-02, -6.43684119e-02, -1.65633515e-01,
       -3.00274193e-02, 3.79679091e-02, 6.13222867e-02, -7.47043118e-02,
       -1.43264038e-02, -3.70161571e-02, -3.62249501e-02,
       -1.37208328e-01, 1.94895025e-02, -2.67714821e-03, -9.45193619e-02,
       1.85768045e-02, -6.19696127e-03, 7.02808723e-02, -4.71490398e-02,
       -1.17508896e-01, -2.63918847e-01, -1.53050750e-01,
       -6.76764920e-02, -5.77941164e-02, -5.09634614e-04,
       -1.44512579e-01, -5.59818223e-02, -9.15011242e-02, 1.36910558e-01,
       -1.19117178e-01, -1.02783114e-01, -1.68918669e-02,
       -7.73183361e-04, -6.31764829e-02, -7.43757114e-02, 9.82295349e-02,
       -4.78627011e-02, -4.56332788e-02, -6.91403449e-02,
       -8.44042562e-03, 2.01469064e-02, 5.49078640e-03, -8.52685869e-02,
       -7.98842758e-02, -9.30235088e-02, -1.26699535e-02,
       -2.77286712e-02, -1.64118886e-01, 1.11847008e-02, -2.68238764e-02,
       7.00967535e-02, -4.15721387e-02, 7.99903739e-03, -1.59645393e-01,
       6.95484057e-02, -6.63273036e-02, -3.80643196e-02, -1.06656261e-01,
       3.91249955e-02, -6.85971901e-02, -2.32570082e-01, -6.92301467e-02,
       -9.92347077e-02, -1.15090750e-01, 5.40303178e-02, 1.42756745e-01,
       1.33819491e-01, -1.05457291e-01, 2.22805560e-01, 5.67564778e-02,
       3.40654142e-02, -1.56599842e-02, 6.01671785e-02, -5.03876433e-02,
       4.38076928e-02, -6.66895658e-02, 7.12269079e-03, 1.25412541e-02,
       3.71826105e-02, 4.21494767e-02, -7.66195804e-02, -9.47705004e-03,
       9.71793979e-02, 7.35334978e-02, 5.53159527e-02, 2.52239227e-01,
       1.02050982e-01, 7.12220594e-02, 1.18179105e-01, 1.45985752e-01,
       2.61984151e-02, -1.55771568e-01, -1.87696576e-01, -1.90282241e-01,
       -1.89253777e-01, -1.97685003e-01, -1.98299289e-01,
       -4.40800413e-02, -9.72184613e-02, -9.23399441e-03,
       -4.78450619e-02, 1.50407612e-01, 3.92092347e-01, 1.27027497e-01,
       -3.01829111e-02, -4.18285765e-02, -8.62436183e-03, 7.54261613e-02,
       2.55994797e-01, -2.13916712e-02, 4.37427610e-02, -1.91518422e-02,
       6.45010471e-02, 6.98986724e-02, 1.03621610e-01, 2.04362776e-02,
       -1.26997875e-02, 1.39741896e-04, 2.15937253e-02, 1.95756238e-02,
       2.70763725e-01, 7.01496452e-02, -3.54646817e-02, 6.40140995e-02,
       3.81103437e-03, -3.25513557e-02, 4.85303625e-02, -8.95965099e-02,
       2.25094473e-03, 4.22730595e-02, -6.61394447e-02, -1.99393749e-01,
       -9.63073820e-02, -8.96247756e-03, -1.00230172e-01,
       -2.07464281e-03, -1.65101841e-01, 9.77818295e-02, 1.28352299e-01,
       -7.26989135e-02, 4.38629948e-02, -1.33994566e-02, 1.53995350e-01,
       4.49349508e-02, 1.03603512e-01, -4.08590510e-02, -6.12967946e-02,
       -4.93571460e-02, 2.50956062e-02, 8.19830596e-02, 9.03677419e-02,
       4.06354740e-02, -4.62841988e-02, -3.56508791e-02, -3.09970766e-01,
       9.74439457e-02, 3.02448347e-02, -2.90028751e-03, -3.82758006e-02,
       -2.42388099e-02, -8.65387768e-02, 1.38699720e-02, -1.86088100e-01,
       -8.29111561e-02, -1.45271018e-01, -2.09342167e-01,
       -1.07693128e-01, 9.25897062e-02, -1.02785550e-01, -1.87324136e-02,
       -5.05471230e-02, -1.03169821e-01, 4.87593710e-02, -7.55738243e-02,
       -3.90886962e-02, 4.85409088e-02, 1.03306472e-01, -3.07433847e-02,
       9.49477926e-02, 1.38644829e-01, 1.46908030e-01, -4.24193293e-02 ]
