<?xml version="1.0"?>
<opencv_storage>
<opencv_ml_svm>
  <format>3</format>
  <svmType>C_SVC</svmType>
  <kernel>
    <type>LINEAR</type></kernel>
  <C>1.0000000000000001e-01</C>
  <term_criteria><epsilon>1.1920928955078125e-07</epsilon>
    <iterations>1000</iterations></term_criteria>
  <var_count>64</var_count>
  <class_count>2</class_count>
  <class_labels type_id="opencv-matrix">
    <rows>2</rows>
    <cols>1</cols>
    <dt>i</dt>
    <data>
      0 1</data></class_labels>
  <sv_total>1</sv_total>
  <support_vectors>
    <_>
      -2.17595389e-05 -4.47961020e-06 -5.37521601e-06 -1.69778632e-05
      1.08558561e-05 -1.41812989e-05 -1.99092465e-05 2.49712575e-05
      6.89786339e-06 -5.87388458e-05 -2.90768749e-05 -3.69868467e-05
      2.21521459e-05 -3.80431879e-06 1.66425361e-05 2.07930516e-05
      -1.28953925e-05 7.17560260e-06 -5.95225947e-06 5.17475974e-06
      7.63845583e-06 -6.72354599e-06 -7.72064595e-06 -6.31709008e-06
      -1.61235002e-05 5.98631004e-06 -1.21236144e-05 -2.08073925e-06
      1.54313657e-05 -1.16755837e-05 1.95024750e-05 -7.81025051e-07
      -6.75301089e-06 -3.58900593e-06 8.67040740e-07 2.86287673e-06
      -1.41449519e-07 -3.63315780e-06 5.47301215e-06 1.03237617e-05
      1.18585094e-05 -5.30664011e-06 -7.95697997e-06 7.24200675e-07
      8.89080275e-06 -2.58369728e-05 -2.21589635e-05 -1.83118033e-07
      3.57243812e-06 6.10460620e-06 -5.76875482e-06 -2.13723524e-06
      -7.67227419e-08 -1.05913441e-05 2.46764080e-06 -8.44553506e-06
      7.44959789e-06 -2.19464459e-06 -3.37144525e-06 -1.46494403e-06
      -2.59117110e-06 3.58459874e-06 -2.99255225e-06 5.51438598e-06</_></support_vectors>
  <uncompressed_sv_total>199</uncompressed_sv_total>
  <uncompressed_support_vectors>
    <_>
      1.98639404e+03 9.98332275e+02 5.90304199e+02 4.99237854e+02
      2.00878564e+03 4.44823944e+02 1.20289970e+02 1.15004341e+02
      4.37300903e+02 6.68431015e+01 2.87215332e+02 8.21214905e+02
      1.27152173e+03 4.06094788e+02 6.60165161e+02 8.17227722e+02
      6.40127930e+03 8.87403992e+02 3.50314240e+02 1.22108435e+03
      1.55604736e+03 1.21215857e+03 4.19432922e+02 1.60465527e+03
      2.22443359e+03 1.32923657e+03 5.76863098e+02 7.69828918e+02
      1.66972485e+03 3.41099182e+02 6.75170715e+02 4.63431934e+03
      1.23916174e+03 4.32654999e+02 5.72709717e+02 3.60588745e+03
      8.42877832e+03 7.58411011e+02 8.19460602e+01 1.13927689e+02
      5.81204956e+02 4.41271973e+02 1.02101910e+03 1.15905459e+04
      3.21988926e+04 3.17066040e+03 4.76988312e+02 5.52457947e+02
      2.68970361e+03 2.90307983e+03 4.34350049e+03 1.38207188e+04
      1.59365908e+04 7.22222021e+03 2.38548022e+03 4.65810742e+03
      4.63760889e+03 3.15522803e+03 3.10991016e+03 1.01093594e+04
      2.01484043e+04 5.55568994e+03 2.61131763e+03 3.34770825e+03</_>
    <_>
      9.67742188e+02 1.03479469e+02 4.33737671e+02 2.64564600e+03 412.
      3.01204254e+02 4.75141174e+02 2.77004712e+03 2.07407690e+03
      9.74050964e+02 2.23443799e+03 3.79895728e+03 4.59564551e+03
      1.85607666e+02 6.84175110e+02 5.35858459e+02 2.66025269e+03
      1.13775903e+03 7.97112671e+02 1.62782727e+03 2.33586792e+03
      1.34259424e+03 1.76318799e+03 2.16132422e+03 2.43152246e+03
      1.51786194e+03 1.54341211e+03 2.08280347e+03 2.95168945e+03
      7.39339050e+02 1.33908752e+03 2.12479102e+03 7.73351013e+02
      1.17366443e+03 2.00219284e+02 3.64590967e+03 1.35878291e+04
      4.62826080e+02 1.37427399e+02 1.58794830e+02 3.97492340e+02
      4.48651703e+02 1.18346997e+03 1.33978242e+04 4.21337695e+04
      2.81632495e+03 3.81453888e+02 6.01090271e+02 5.21214404e+03
      4.19932178e+03 8.27072070e+03 2.24095527e+04 2.08813047e+04
      4.39615527e+03 3.49171875e+03 4.35929443e+03 6.94970850e+03
      6.21412695e+03 9.06271484e+03 1.63765049e+04 2.31053047e+04
      7.27253369e+03 4.63414404e+03 5.08595557e+03</_>
    <_>
      2.30746460e+03 6.46923462e+02 4.52749969e+02 1.05467322e+03
      1.20301929e+03 1.19013992e+02 4.19314919e+01 0. 1.41170135e+02 0.
      2.84253387e+01 1.43160797e+02 1.13023796e+02 1.44222050e+01
      2.27846832e+02 1.31091882e+03 1.16941914e+04 8.37631897e+02
      6.30993835e+02 1.76339343e+03 1.31659583e+03 5.13071777e+02
      4.16087402e+02 4.14990326e+02 1.22176343e+03 2.96592255e+02
      1.14900317e+03 1.55642627e+03 2.76534375e+03 1.25271216e+03
      2.47353247e+03 1.01922930e+04 1.00699225e+03 1.19561145e+03
      2.55875635e+03 8.68062305e+03 9.55681348e+03 1.40808533e+03
      1.14851489e+03 2.32052344e+03 1.87809985e+03 5.56823792e+02
      1.59089026e+03 4.31671484e+03 5.88217139e+03 9.56381836e+02
      1.46414398e+02 1.81648010e+02 8.48617578e+03 4.85426562e+03
      8.08345459e+03 3.09450488e+04 2.51313496e+04 6.73874902e+03
      5.05542334e+03 1.20679551e+04 1.91421875e+04 8.37116211e+03
      1.29985420e+04 3.04250508e+04 2.93868379e+04 8.45978125e+03
      6.08716699e+03 6.52549512e+03</_>
    <_>
      5.29402710e+02 1.22692581e+02 5.94277710e+02 1.80751221e+03
      1.14835901e+03 4.26509766e+02 8.52990189e+01 9.93299332e+01
      1.49157608e+02 5.21536217e+01 5.19061584e+02 9.11020630e+02
      1.02674976e+03 1.44800400e+02 1.81922348e+02 1.28510162e+02
      8.42094360e+02 6.94812317e+02 1.07541284e+03 2.78669189e+03
      7.51376318e+03 5.27231812e+02 3.43153900e+02 1.36840576e+02
      6.13885132e+02 1.06523108e+03 2.27459229e+03 3.54571631e+03
      5.14087939e+03 1.12860535e+03 4.15005798e+02 4.02027679e+02
      6.18786316e+02 1.10796516e+02 4.82825378e+02 2.23152808e+03
      5.21596777e+03 9.90796326e+02 8.13091553e+02 8.43778320e+02
      1.18660925e+03 5.05574646e+02 4.85918243e+02 1.77690149e+03
      1.45583691e+03 9.78684692e+02 3.82229614e+02 3.04483856e+02
      1.13664270e+03 1.38410693e+03 3.82739746e+03 1.24332275e+04
      1.22719209e+04 3.62087158e+03 1.66984070e+03 3.02970752e+03
      2.59144507e+03 1.23701929e+03 2.99632495e+03 9.19658691e+03
      1.45253965e+04 2.43753223e+03 2.01263110e+03 1.06161340e+03</_>
    <_>
      40. 3.49284973e+01 4.50379700e+02 4.44849219e+03 5.73609326e+03
      2.49115295e+02 0. 0. 2.17078918e+02 1.18514450e+02 2.38288940e+02
      1.79400269e+03 4.71306445e+03 1.54434448e+02 1.84474213e+02
      1.61022873e+02 5.30680859e+03 8.77841431e+02 3.31531250e+02
      4.11592712e+02 1.87447852e+03 1.50422290e+03 1.57592371e+03
      1.70721448e+03 1.28231628e+03 2.24072925e+03 1.35241931e+03
      2.58086719e+03 5.77171631e+03 1.77060852e+03 1.73165149e+03
      7.16534619e+03 676. 7.41365356e+02 1.57868066e+03 1.15940518e+04
      1.62774971e+04 1.24768262e+03 6.13812805e+02 1.24787933e+02
      7.51566711e+02 1.12715401e+02 7.44643738e+02 7.74797266e+03
      7.75900537e+03 1.02147314e+03 3.48876129e+02 6.19838715e+01
      4.24782373e+03 2.68064673e+03 5.89861377e+03 1.55026133e+04
      2.05068828e+04 4.74120068e+03 2.04603040e+03 4.50549316e+03
      3.88437671e+03 2.52798389e+03 6.19969531e+03 2.59223457e+04
      2.30911680e+04 6.91362549e+03 4.77603857e+03 3.30251392e+03</_>
    <_>
      1.20030139e+03 3.17482544e+02 1.05127429e+03 8.08688843e+02
      7.84549866e+02 3.75520752e+02 5.58998169e+02 2.19535873e+02 388.
      4.98488678e+02 7.53065308e+02 1.54252612e+03 1.18689575e+03
      1.07521448e+03 1.17723315e+03 1.89178055e+02 2.91136139e+02
      3.63823151e+02 6.10860107e+02 1.30143896e+03 9.17271484e+03
      5.82109180e+03 2.16947217e+03 2.29096997e+03 1.84516016e+03
      1.63125354e+03 1.48943469e+03 2.36992432e+03 6.67306982e+03
      3.56978955e+03 4.35128418e+03 1.15875696e+03 7.65067578e+03
      7.70686340e+02 8.70967102e+02 4.77541870e+02 2.43477686e+03
      2.49183203e+03 1.57523328e+03 1.01779902e+04 1.66447031e+04
      4.75429590e+03 2.97788867e+03 4.80673291e+03 3.01110913e+03
      3.49179175e+03 6.89557227e+03 1.66647578e+04 1.13329209e+04
      5.57961621e+03 5.29077490e+03 7.37020654e+03 1.10867324e+04
      5.54393701e+03 5.55097314e+03 1.05601943e+04 1.63346904e+04
      6.91099023e+03 5.98181055e+03 7.71673584e+03 8.28491406e+03
      1.89227695e+04 1.24482832e+04 8.70777637e+03</_>
    <_>
      2.78033813e+02 9.60011169e+02 1.09446082e+03 6.88248840e+02
      4.36419128e+02 7.85450867e+02 4.26663666e+02 1.06685455e+02
      1.80862808e+02 8.79659042e+01 8.86392365e+01 0. 1.62460495e+02
      2.91629200e+01 2.12013306e+02 9.95106873e+02 428. 0. 0. 0. 0. 0.
      0. 0. 64. 0. 0. 0. 0. 0. 0. 0. 0. 0. 0. 0. 294. 5.49398682e+02
      3.83389160e+02 2.97727966e+02 3.66045197e+02 0. 2.28035069e+01 0.
      40. 0. 0. 0. 0. 0. 0. 0. 0. 0. 0. 0. 170. 0. 0. 0. 0. 0. 0. 0.</_>
    <_>
      1.78703979e+03 1.55518738e+03 8.90179932e+02 1.86506622e+02
      8.69717529e+02 9.35326355e+02 5.09917328e+02 1.03413354e+03
      2.59074402e+02 1.41047089e+02 2.36591553e+02 1.18664993e+02
      2.18375275e+02 5.66392059e+01 8.60232544e+01 1.07358508e+03
      3.87120453e+02 0. 0. 0. 0. 0. 5.99332962e+01 0. 78. 1.72046509e+01
      8.96807175e+01 0. 1.63770828e+02 0. 1.63370743e+02 2.09990463e+02
      1.30751678e+02 1.33304169e+02 0. 1.20332863e+02 5.29788025e+02
      7.66943176e+02 1.04279199e+03 7.15881287e+02 5.89903625e+02
      2.72774353e+02 0. 0. 42. 0. 2.55199677e+02 0. 32. 0. 0. 0. 24. 0.
      0. 0. 374. 7.70064926e+01 0. 0. 0. 0. 7.23463898e+01 0.</_>
    <_>
      3.51622772e+01 5.65685415e+00 0. 3.16227770e+00 4.31622772e+01 0.
      5.65685415e+00 3.16227770e+00 1.43245554e+01 2.99279785e+01
      4.47213602e+00 6.32455540e+00 3.51622772e+01 0. 5.65685415e+00
      3.16227770e+00 9.07327454e+02 1.59994373e+03 1.16988342e+03
      2.13718213e+03 5.61583496e+03 1.75036414e+03 1.28307739e+03
      6.48287842e+02 1.01514874e+03 3.76022461e+03 2.08579419e+03
      4.29404834e+03 3.10872754e+03 4.83208832e+02 4.68812622e+02
      3.91668030e+02 2.09245544e+02 2.75196381e+02 7.56021362e+02
      4.37706055e+02 8.60435913e+02 2.93992310e+02 2.48673508e+02
      1.59339432e+02 3.42656982e+02 1.06451416e+02 6.63324432e+01
      2.53328445e+02 2.66244659e+02 9.55084915e+01 5.83150444e+01
      6.32455540e+00 1.45909727e+04 1.32591377e+04 2.06734941e+04
      1.64298770e+04 1.09182900e+04 7.59884229e+03 8.46526855e+03
      8.27370801e+03 1.04529365e+04 6.79666260e+03 6.30443408e+03
      7.68706201e+03 8.25591992e+03 6.12101807e+03 5.77655176e+03
      5.90226855e+03</_>
    <_>
      1.47166153e+02 0. 0. 0. 5.46473877e+02 9.10822754e+02
      4.52979199e+03 5.36913330e+02 6.70453644e+01 1.77597488e+02
      1.07192432e+03 5.03733105e+03 1.55184326e+03 0. 0. 2.59615097e+01
      5.15091743e+01 2.72284546e+01 1.54583115e+02 2.10265518e+02
      1.50896497e+03 7.39211670e+02 6.10990430e+03 1.31175879e+03
      4.76174698e+01 1.44886751e+01 1.58113871e+01 3.03716068e+01 56.
      8.94427204e+00 2.87329712e+01 1.31889343e+02 8.40532654e+02
      3.38309351e+03 1.30425842e+03 5.78842920e+03 3.51974194e+03
      3.18405701e+02 7.82943115e+01 9.23471680e+01 3.15235382e+02 0.
      2.72227997e+02 2.77279199e+04 5.17357764e+03 6.95792480e+02
      3.56089859e+01 1.55097275e+02 4.86170117e+03 1.95526035e+04
      1.42872302e+03 5.06405090e+02 6.40760925e+02 3.10152051e+03
      1.34369043e+04 1.48502917e+03 2.12678418e+03 1.02454260e+03
      8.59576416e+02 8.98462891e+02 6.98560364e+02 1.90451465e+03
      4.94495087e+02 2.79251312e+02</_>
    <_>
      62. 0. 0. 0. 6.91622772e+01 0. 3.61569482e+03 2.00699365e+03
      6.56013428e+02 4.53402710e+02 8.59306946e+02 5.22715918e+03 376.
      2.10237961e+01 0. 0. 7.08446808e+01 4.54470901e+01 3.56437378e+01
      2.99072815e+02 1.58770300e+03 7.78020386e+02 2.83287280e+03
      1.55225928e+03 3.31892944e+02 1.70659668e+02 1.43863724e+02
      4.76895523e+01 1.13272507e+02 6.59561920e+01 1.06739456e+02
      3.11820641e+01 1.66059204e+03 3.05048560e+03 9.21654480e+02
      5.75255664e+03 4.16870020e+03 1.01376587e+03 7.74921326e+02
      1.27129852e+02 716. 0. 7.60263062e+01 2.61491348e+04
      6.95120361e+03 4.50313904e+02 3.34403381e+02 2.48499893e+02
      5.60990381e+03 1.89892617e+04 1.65417883e+03 1.20432336e+03
      1.16400354e+03 4.31488867e+03 1.50559268e+04 1.73079578e+03
      1.46222864e+03 6.25670898e+02 8.81065247e+02 1.42752075e+03
      1.33514783e+03 1.27852942e+03 9.22442505e+02 5.10156433e+02</_>
    <_>
      1.54710083e+02 6.94673767e+02 9.65558716e+02 3.58505371e+02
      9.27384644e+02 4.44072075e+01 9.67316818e+01 1.10731552e+02
      2.38288422e+02 1.07139114e+02 6.59362869e+01 3.02454773e+02
      1.21693138e+02 1.20958786e+02 7.32311935e+01 1.15002197e+02
      2.13911108e+03 1.86254407e+03 8.97456726e+02 1.63565100e+03
      1.59241223e+03 2.20719986e+02 4.85891022e+02 6.12306763e+02
      5.57970947e+02 3.72843109e+02 3.57196808e+02 1.18267432e+03
      4.22479834e+03 2.52473438e+03 1.70176855e+03 1.15712305e+03
      9.23435730e+02 2.76113922e+02 1.16341833e+03 4.22871143e+03
      4.24974512e+03 8.18712646e+02 9.12071594e+02 8.46138855e+02
      1.02067438e+03 4.11571075e+02 5.96688965e+02 7.75001526e+02
      2.33280289e+02 1.75677048e+02 1.82472260e+02 3.69836578e+02
      2.48944995e+03 2.21392969e+03 3.83654272e+03 9.47309863e+03
      1.43283330e+04 4.73712305e+03 4.43325684e+03 3.65904468e+03
      6.41075439e+03 6.81750195e+03 6.48172119e+03 1.71690820e+04
      1.49796045e+04 5.66876221e+03 2.37612817e+03 2.80143652e+03</_>
    <_>
      1.40000010e+01 9.67987595e+01 1.45315231e+02 5.61489502e+02
      2.69466370e+02 1.35695618e+02 1.28062487e+01 1.66617542e+03
      5.33082324e+03 1.13726855e+03 1.05273279e+03 2.21598755e+03
      1.74351550e+03 2.59281067e+02 9.61769180e+01 1.10140991e+02
      2.83504639e+03 8.23876770e+02 2.74498474e+02 5.26687073e+02
      1.85902771e+03 4.03304871e+02 2.28622803e+02 2.55962817e+03
      1.90949766e+04 1.52239331e+03 6.57910706e+02 9.14715820e+02
      1.71468298e+03 2.56308777e+02 4.32450500e+02 1.50968274e+03
      1.49747534e+03 2.47003098e+01 3.28502594e+02 3.12519580e+03
      5.45535596e+03 8.98965698e+02 1.31214981e+02 0. 3.00801941e+02
      1.46018280e+02 1.76542038e+02 4.38964453e+03 3.39411328e+04
      1.66590173e+03 3.97150230e+01 5.03062683e+02 4.69823877e+03
      1.82298499e+03 2.25701367e+03 9.35935840e+03 1.53927744e+04
      1.89652539e+03 1.37751184e+03 1.30740869e+03 2.79371191e+03
      1.27843811e+03 1.66129736e+03 7.04862793e+03 1.17134902e+04
      2.56546436e+03 1.74031653e+03 3.61313428e+03</_>
    <_>
      3.95361359e+02 1.93357391e+02 5.18258484e+02 1.25823166e+02 28.
      9.02108688e+01 0. 2.21873633e+03 2.89430493e+03 1.68953027e+03
      1.76926062e+03 1.80842346e+03 1.04119617e+03 1.77123825e+02 0.
      1.53503662e+02 2.22027686e+03 5.95427795e+02 2.26573059e+02
      1.13989771e+03 9.19106250e+03 9.58520508e+02 8.76519409e+02
      1.11653164e+04 2.07183223e+04 5.07137817e+02 3.20587494e+02
      7.00714539e+02 2.18483130e+03 1.38801636e+02 3.62783386e+02
      2.18586670e+03 3.98343475e+02 1.95136383e+02 5.07573242e+02
      4.50700977e+03 6.17392432e+03 1.04282556e+03 5.92337830e+02
      2.07663254e+02 3.62956207e+02 1.58232346e+02 3.03440338e+02
      5.65836768e+03 4.03383672e+04 1.51757605e+03 8.38629211e+02
      8.30862274e+01 6.24936279e+03 4.18781201e+03 3.62319092e+03
      1.07002988e+04 3.64947305e+04 6.12982861e+03 3.29999292e+03
      3.83436865e+03 6.62986426e+03 3.77060034e+03 4.54691162e+03
      1.32708613e+04 2.22012676e+04 5.83609912e+03 2.71590308e+03
      5.41962451e+03</_>
    <_>
      2.46148682e+02 6.27121277e+01 1.11364273e+02 2.13036774e+02
      9.56347198e+01 0. 2.61526459e+02 1.52227319e+03 3.74354614e+03
      1.20890759e+03 2.31225464e+03 1.22600659e+03 9.10207214e+02 0.
      7.21110249e+00 2.60768108e+01 1.91154199e+03 9.90760498e+02
      2.58905670e+02 1.29712128e+02 6.96969189e+03 1.41287756e+03
      1.28144604e+03 9.88472168e+03 2.71710137e+04 5.52755859e+02
      2.37065392e+01 1.70967667e+02 9.81322144e+02 2.11559006e+02
      9.24629700e+02 1.69637854e+03 4.49432404e+02 5.84682732e+01
      2.10903015e+02 3.55521582e+03 6.76099023e+03 6.38482117e+02
      2.48411270e+02 2.03254791e+02 2.14212585e+02 1.54609604e+02
      1.52357483e+02 6.03176807e+03 5.01372617e+04 1.23698328e+03
      6.94518066e+02 3.46657562e+02 1.01989922e+04 3.09210449e+03
      5.37822412e+03 1.34858809e+04 2.77424297e+04 8.73131738e+03
      4.14283984e+03 6.34034668e+03 8.26466406e+03 3.78567993e+03
      5.59395654e+03 1.75148262e+04 2.35866543e+04 5.71924658e+03
      3.03907812e+03 9.26867773e+03</_>
    <_>
      192. 1.04059448e+03 2.56980322e+03 1.25781152e+03 1.06869690e+03
      6.38158813e+02 1.81918518e+02 1.45602188e+01 94. 7.61577368e+00
      1.43141083e+02 1.36951279e+02 1.15092712e+02 3.32866325e+01
      5.80517006e+01 1.07132980e+02 1.48171887e+03 1.65746606e+03
      4.57883789e+03 6.30346680e+03 1.15305059e+04 6.34872021e+03
      7.27730762e+03 5.31550635e+03 3.38760986e+03 7.55278711e+03
      6.46812207e+03 8.28912012e+03 1.33515820e+04 4.96794873e+03
      2.60536548e+03 2.20159546e+03 6.71421484e+03 3.25296997e+03
      5.57139941e+03 6.37939844e+03 3.28238281e+03 4.82946631e+03
      2.04919946e+03 1.58881030e+03 5.68598047e+03 5.72329395e+03
      1.27226328e+04 1.35370088e+04 1.01844150e+04 4.16784912e+03
      5.91153711e+03 3.56568140e+03 1.87514004e+04 2.56205605e+04
      3.63680117e+04 2.35622012e+04 3.00719473e+04 1.77653574e+04
      1.81402266e+04 9.81101074e+03 2.16126211e+04 2.54944238e+04
      2.61808770e+04 2.95461406e+04 4.48278438e+04 2.90539453e+04
      2.46639492e+04 1.86711777e+04</_>
    <_>
      2.44939380e+03 1.42847522e+03 1.74031860e+03 2.48387549e+03
      2.57409058e+03 1.53484558e+03 9.52043518e+02 5.79750916e+02 1128.
      0. 5.67274170e+01 1.74978180e+02 3.65149261e+02 1.96977158e+01 0.
      1.07901526e+03 1138. 1.37767914e+02 0. 4.17372119e+03
      1.73098145e+03 3.34068848e+02 0. 1.51921036e+02 4.41760559e+02 0.
      1.91415112e+03 2.13745142e+03 5.70075195e+03 6.61366882e+02
      2.46855469e+03 4.60517151e+02 82. 1.27884224e+02 3.25813477e+02
      1.38476303e+02 1.44526013e+03 2.87819873e+03 4.27430420e+02
      7.30616150e+01 46. 0. 1.57003189e+02 1.81759552e+02 222.
      7.63898315e+01 0. 0. 22. 0. 5.78805054e+02 0. 3.56302338e+02
      1.49833237e+02 0. 3.23013550e+02 234. 1.59248230e+02
      8.35723572e+02 6.61557678e+02 1.06883386e+03 3.08379639e+02
      1.69917618e+02 0.</_>
    <_>
      2.01806152e+03 4.81425018e+01 9.98074890e+02 7.17249707e+03
      1.94959583e+03 5.74726562e+02 0. 7.47336121e+01 48. 1.36773087e+02
      2.53702118e+02 1.07604683e+02 8.21245483e+02 0. 0. 5.81818994e+03
      5.88608398e+03 3.85425854e+03 4.75156952e+02 1.97044873e+03
      3.31312622e+03 3.11076355e+02 4.80369568e+02 9.00511719e+02
      2.79216919e+03 2.07467358e+03 1.19673035e+03 2.13616699e+02
      2.69527490e+03 1.97953394e+03 4.34224268e+03 3.95288892e+03
      1.74670502e+02 7.08378448e+01 3.67081360e+02 1.86021228e+03
      2.48508765e+03 7.11116699e+02 1.30647852e+03 8.25978809e+03 786.
      5.05912628e+01 0. 3.20624390e+01 8.33172684e+01 2.26758972e+02 0.
      1.58113880e+01 5.88312988e+02 4.93808960e+02 4.56657837e+02
      1.14593391e+02 1.80939734e+03 8.52303955e+02 1.75281470e+03
      3.18625610e+03 9.40692383e+02 2.25037781e+02 5.93285156e+02
      1.79910718e+03 1.44501685e+03 7.50206909e+02 1.29018567e+03
      5.14159180e+02</_>
    <_>
      4.20248352e+02 1.02116260e+03 6.89633252e+03 6.65037402e+03
      1.68036169e+03 2.69072475e+01 0. 6.08561020e+01 2.28883423e+02
      8.48129959e+01 1.13383911e+02 4.97180908e+02 4.07667999e+02
      1.23039032e+02 8.06597824e+01 2.98492432e+02 1.13923994e+04
      3.56081177e+03 1.08186877e+03 6.71739197e+02 1.44106909e+03
      9.38089172e+02 9.03401550e+02 5.70794312e+02 8.78633362e+02
      1.31560425e+03 4.81132690e+02 8.62435150e+01 2.88797461e+03
      1.85768140e+03 1.01618818e+04 5.57318125e+04 8.18933350e+02
      3.76204437e+02 5.62452881e+02 3.59632539e+04 3.68341553e+03
      1.14320447e+03 1.31169080e+03 1.00448086e+04 1.05224341e+03
      4.91975861e+01 2.30508163e+02 1.49145593e+03 1.85651282e+03
      2.57302063e+02 1.07620712e+02 2.35725021e+02 8.86455566e+03
      1.05083018e+04 2.51840840e+04 4.14489648e+04 2.42218867e+04
      1.05844316e+04 1.11956953e+04 5.46759453e+04 2.21682090e+04
      1.41144873e+04 2.21586465e+04 6.60679688e+04 3.85291172e+04
      1.38693301e+04 1.12354863e+04 1.08032627e+04</_>
    <_>
      1.47792267e+02 1.95404572e+02 1.24157875e+02 8.03667755e+01 268.
      0. 0. 0. 2. 0. 0. 3.16227770e+00 92. 0. 4.86678314e+01
      2.92649727e+01 6.93039734e+02 1.03716394e+03 1.70570557e+03
      3.90205261e+02 9.90679260e+02 1.12159607e+02 3.95347717e+02
      1.73774567e+02 1.33330420e+03 1.70289688e+02 2.43867325e+02
      3.19737274e+02 8.43925720e+02 6.46147949e+02 7.70234924e+02
      1.70555200e+03 8.06697266e+02 6.74918335e+02 1.38843787e+03
      1.63406287e+03 2.34550757e+03 2.09134888e+03 7.86596069e+02
      4.66963318e+02 1.12697266e+03 2.27002396e+02 1.06018211e+02
      1.25347206e+02 2.52462173e+02 1.01099625e+02 1.15182892e+02
      3.36530792e+02 2.16266133e+04 1.36991182e+04 1.38454980e+04
      1.31061504e+04 2.22052910e+04 1.42905361e+04 1.24714922e+04
      1.21687510e+04 2.09752188e+04 1.28114590e+04 8.83460352e+03
      1.09558691e+04 1.84313516e+04 1.30050430e+04 1.41048477e+04
      9.87277539e+03</_>
    <_>
      1.99766037e+02 2.70833496e+02 6.78229980e+01 2.01079071e+02
      9.95623779e+01 5.03224792e+01 0. 3.16227770e+00 16. 2.12132034e+01
      3.33026352e+01 3.16227770e+00 4.64510078e+01 1.92399025e+01
      5.48723679e+01 1.41421356e+01 8.28768799e+02 1.38044775e+03
      1.37143213e+03 1.12405664e+03 9.01799927e+02 1.30416428e+02
      1.12866600e+02 3.93697433e+01 1.70238632e+02 1.73986801e+02
      1.85526550e+02 3.89646484e+02 9.73564575e+02 6.07837158e+02
      1.10206934e+03 1.13795471e+03 8.99971741e+02 1.53065540e+03
      2.02641211e+03 2.17644678e+03 1.76157825e+03 2.41169287e+03
      2.04558594e+03 9.74897522e+02 1.35163513e+03 3.05501312e+02
      1.82318939e+02 1.09924759e+02 2.29127930e+02 3.35424622e+02
      4.58922241e+02 6.43363647e+02 2.68656328e+04 2.19956992e+04
      2.32466328e+04 2.03970117e+04 2.75453652e+04 1.95341562e+04
      1.98739336e+04 1.76873242e+04 2.07235469e+04 1.41696279e+04
      1.20244355e+04 1.48190137e+04 2.64676484e+04 2.19783203e+04
      2.80446914e+04 1.88247090e+04</_>
    <_>
      1.31622772e+01 1.71105976e+01 2.26738007e+02 6.95329285e+02
      1.89956519e+03 1.78293469e+03 2.28635400e+03 3.16227770e+00
      2.30710678e+01 3.50017700e+02 4.30202240e+02 1.03237979e+04
      1.76328821e+03 1.02956305e+01 5.83095169e+00 7.07106781e+00
      3.05162292e+02 2.26644089e+02 8.37149292e+02 7.21551208e+02
      1.64381531e+03 2.20340186e+03 9.04493555e+03 1.37408215e+03
      3.09732971e+02 1.68160815e+03 4.22280078e+03 2.24043164e+03
      3.11891479e+03 9.08130264e+01 2.86018105e+01 1.05466637e+02
      2.63214752e+02 3.90642181e+02 6.49234314e+02 1.85426895e+04
      6.99843457e+03 2.02661194e+02 1.77825653e+02 6.01710510e+01
      4.50450684e+02 1.65388412e+02 5.33700623e+02 6.15587734e+04
      1.09308369e+04 3.33998260e+02 9.57579193e+01 2.97635071e+02
      4.73043848e+03 4.51847510e+03 3.17185962e+03 1.13353232e+04
      8.98355078e+03 6.16695850e+03 1.67064707e+04 4.18581055e+03
      5.58165674e+03 6.27941992e+03 3.61630054e+03 8.07735693e+03
      8.41544238e+03 4.69016992e+03 5.78862354e+03 2.79675757e+03</_>
    <_>
      0. 0. 0. 0. 0. 0. 0. 0. 0. 0. 0. 0. 0. 0. 0. 0. 2.38368091e+03
      2.39244580e+03 9.22503540e+02 4.18537646e+03 4.05158008e+03
      6.77709521e+03 3.42940942e+03 1.15733142e+03 4.78622681e+02
      8.53806641e+03 5.83123535e+03 7.09340088e+03 7.48257422e+03
      2.76741235e+03 2.92649927e+03 2.97825562e+03 1.37672864e+03
      7.57595642e+02 7.64485474e+02 6.10166809e+02 6.22219177e+02
      1.99130615e+03 1.58629614e+03 2.09078461e+02 1.94653406e+03
      9.58318457e+03 2.68506812e+03 7.03175537e+02 3.36114795e+03
      1.23447197e+04 4.42528418e+03 3.81085144e+02 1.02206201e+04
      1.10701768e+04 1.26048232e+04 1.10055273e+04 1.47078291e+04
      2.57012695e+04 2.32861895e+04 1.21713564e+04 1.53985518e+04
      3.65892812e+04 1.61262256e+04 7.49272021e+03 1.48669756e+04
      5.84900781e+04 2.43634688e+04 1.20041289e+04</_>
    <_>
      9.08812927e+02 0. 5.57404602e+02 2.09514328e+02 2.03741235e+03
      2.68646436e+03 2.17406201e+03 2.57650537e+03 3.11313904e+02
      4.77163300e+02 3.11603943e+02 9.47817688e+02 9.45945740e+02
      1.22179749e+03 2.53055542e+03 8.21298462e+02 3.27436890e+03
      8.16421338e+03 9.06850000e+03 6.77336328e+03 1.02874658e+04
      2.43730078e+03 3.52649780e+03 2.03758521e+03 4.70735938e+03
      6.60264844e+03 7.15039551e+03 1.18038311e+04 1.34919893e+04
      4.95067627e+03 3.97712720e+03 2.70163159e+03 8.53253223e+03
      6.42632568e+03 3.60091016e+03 4.61481494e+03 4.67522949e+03
      5.23782910e+03 4.65603711e+03 4.64626465e+03 7.03042139e+03
      4.67711279e+03 7.75429688e+03 6.35521094e+03 7.46399121e+03
      7.35800195e+03 4.63070020e+03 4.67848389e+03 3.16174473e+04
      3.11157930e+04 4.62105195e+04 4.18295625e+04 3.86909141e+04
      2.90543789e+04 2.82242715e+04 5.20518516e+04 4.11399336e+04
      4.20157344e+04 3.52509023e+04 3.86821758e+04 4.30856836e+04
      6.30356211e+04 4.66913906e+04 4.37491719e+04</_>
    <_>
      1.61383447e+03 2.49643750e+03 3.23223340e+03 1.12580115e+03
      1.51951196e+03 8.38689423e+01 3.83242432e+02 7.38708374e+02
      3.55441528e+03 1.12513477e+03 3.52028839e+02 5.14996399e+02
      9.17281128e+02 4.69630920e+02 1.28659692e+03 7.31904663e+02
      3.69006152e+03 5.23162305e+03 5.13942969e+03 7.34302686e+03
      7.11468555e+03 3.56659497e+03 2.58979395e+03 3.51198047e+03
      6.32582764e+03 7.15180615e+03 7.59768164e+03 4.91780713e+03
      1.33759736e+04 6.57607227e+03 8.06103809e+03 7.38247314e+03
      3.30416772e+03 1.61571204e+03 1.51723193e+03 2.25717993e+03
      2.22924634e+03 3.21488257e+03 1.65101221e+03 1.23525269e+03
      1.12419019e+03 3.71780396e+03 6.16800684e+03 6.21326074e+03
      3.95205103e+03 1.02142324e+04 5.34330371e+03 2.03957910e+03
      3.83884336e+04 4.33562266e+04 5.37997891e+04 4.80451797e+04
      4.17431367e+04 4.19253789e+04 4.06023516e+04 8.21355156e+04
      5.31681992e+04 5.84580078e+04 3.94711602e+04 2.79038691e+04
      4.10874453e+04 7.61691719e+04 6.85700781e+04 8.99165781e+04</_>
    <_>
      0. 0. 0. 0. 0. 0. 0. 0. 0. 0. 0. 0. 0. 0. 0. 0. 4.20049683e+02
      2.34035693e+03 1.56976160e+03 1.31352493e+02 6.56355042e+02
      5.64753223e+03 2.22527539e+03 1.48618652e+03 1.47656445e+03
      6.20144873e+03 3.88299048e+03 9.54549942e+01 6.63765259e+02
      1.85968433e+03 4.65104034e+02 4.65828491e+02 5.68428162e+02
      2.58255200e+03 3.44775610e+03 6.17358521e+02 5.43374695e+02
      1.33624719e+03 8.17647888e+02 3.04406708e+02 6.50440674e+02
      4.81193164e+03 6.92655908e+03 1.96270251e+03 1.37651965e+03
      5.79929199e+03 2.59827563e+03 4.66048553e+02 1.43418398e+04
      5.16842578e+04 3.40481367e+04 4.00130781e+04 2.13685742e+04
      4.16879492e+04 2.50145723e+04 2.75755098e+04 2.86623320e+04
      6.27687656e+04 3.34296914e+04 5.53873281e+04 2.85811758e+04
      4.96791250e+04 4.95204609e+04 1.55453506e+04</_>
    <_>
      9.70838379e+02 6.59917847e+02 8.38548523e+02 7.36445190e+02
      5.39324951e+02 7.91812744e+02 1.76416077e+03 4.33633154e+03
      2.81833545e+03 6.35137787e+01 5.90115845e+02 7.29931488e+01
      9.48712097e+02 1.87775256e+03 1.82214392e+03 2.06072800e+02
      4.03886902e+02 1.10742957e+03 2.24800446e+02 3.92902100e+02 332.
      6.12249947e+01 5.84550232e+02 7.40691284e+02 1.08620361e+03
      3.77838318e+02 4.20693481e+02 1.55875391e+03 2.68816724e+03
      3.59365576e+03 2.73212744e+03 5.95177429e+02 2.52390430e+03
      3.71497864e+02 1.39208557e+03 7.03964783e+02 5.13623901e+02
      2.25069971e+03 5.68251123e+03 2.18561011e+03 1.76703577e+03
      1.23457593e+03 1.99284668e+03 2.33827393e+03 2.26342090e+03
      8.20456604e+02 4.94699921e+02 2.73660370e+02 2.59096582e+03
      1.12413342e+03 1.10645166e+03 1.95320154e+03 3.46674756e+03
      2.45926611e+03 4.80589014e+03 1.57341638e+03 3.86229614e+03
      5.48418799e+03 8.39039160e+03 2.65970728e+03 2.17499585e+03
      3.23338428e+03 1.99723364e+03 3.14058081e+03</_>
    <_>
      242. 3.87418884e+02 1.69346451e+02 1.29617096e+02 4.36753845e+02
      2.41660919e+01 7.02548218e+01 2.65489960e+02 2.82044220e+02
      3.18290833e+02 2.03597702e+02 2.02563684e+03 1.20437903e+03
      3.05698608e+02 3.80249359e+02 5.68858490e+01 1.73880505e+03
      5.84495215e+03 3.30470850e+03 1.67552478e+03 2.46645166e+03
      1.56288501e+03 1.31258838e+03 1.54935730e+03 1.56838013e+03
      1.30716431e+03 1.85129004e+03 2.92737134e+03 5.82506250e+03
      3.03070166e+03 4.11020117e+03 1.49185620e+03 2.31304126e+03
      3.10734204e+03 8.50413477e+03 6.54601025e+03 3.20460278e+03
      3.10463037e+03 1.97980078e+03 2.56357080e+03 4.98018164e+03
      4.57889062e+03 5.32988770e+03 3.11896240e+03 2.19552808e+03
      6.84686340e+02 1.13148279e+03 8.54618286e+02 3.09870625e+04
      1.95704609e+04 2.37935625e+04 2.27711973e+04 3.03110020e+04
      2.13008457e+04 2.74102539e+04 2.82562539e+04 3.06213398e+04
      1.73219980e+04 2.30875527e+04 2.97655215e+04 3.02077598e+04
      2.56706895e+04 1.60106035e+04 3.14265547e+04</_>
    <_>
      6.36864624e+02 9.81343872e+02 1.21625891e+03 4.21091309e+02
      9.39058350e+02 2.75643127e+02 9.45419617e+01 3.12575049e+03
      5.71696240e+03 2.15949609e+03 3.22978906e+03 1.98957056e+03
      1.48744580e+03 3.53836136e+01 1.03004860e+02 1.09749475e+03
      2.29955000e+04 5.84924011e+02 1.52327148e+02 8.39157349e+02
      1.10020752e+04 2.22561841e+03 3.93193677e+03 1.98687812e+04
      5.30919648e+04 6.60955261e+02 4.51946075e+02 8.77691833e+02
      3.75237549e+03 8.31821472e+02 9.56901672e+02 1.31923789e+04
      1.27014160e+03 1.77991577e+02 2.74125580e+02 1.14083057e+04
      3.66696797e+04 6.00041443e+02 1.75912704e+02 7.97719803e+01
      3.57754578e+02 1.09196808e+02 8.52824631e+01 1.21323281e+04
      8.82278359e+04 2.49614307e+03 2.36079468e+03 7.73057434e+02
      5.40852383e+04 1.79299219e+04 2.79152012e+04 4.72443984e+04
      9.65784609e+04 1.57994697e+04 1.42292168e+04 2.87084980e+04
      3.69690352e+04 1.49505908e+04 2.24002344e+04 5.56045859e+04
      6.74899453e+04 1.65841289e+04 1.26708799e+04 3.19537715e+04</_>
    <_>
      1.54733936e+03 1.12613342e+03 2.34682642e+03 1.14768201e+03
      7.59416016e+02 5.26165222e+02 7.14994568e+02 1.31467688e+03
      6.24070312e+02 7.09638000e+02 0. 2.38516251e+02 12. 1.21235313e+02
      2.68328171e+01 1.11556738e+03 5112. 1.77566150e+03 1.33724731e+03
      8.82439209e+02 6.86641211e+03 3.56236646e+03 3.82462476e+03
      4.61386758e+04 6.81273828e+04 7.77213379e+02 2.11365158e+02
      3.19835114e+02 7.41009827e+02 2.38881653e+02 6.00667603e+02
      5.00590771e+03 2.74197729e+03 6.98080505e+02 1.19025049e+03
      5.71963379e+03 1.44122334e+04 8.85397217e+02 3.13958771e+02
      1.11162560e+02 7.59055298e+02 2.32214966e+02 1.03607751e+03
      2.09955586e+04 8.28726953e+04 3.28782471e+03 1.09880627e+03
      3.19262421e+02 1.34553062e+05 4.27301992e+04 3.71994961e+04
      6.58387422e+04 1.64578719e+05 3.72921758e+04 3.82197656e+04
      9.07153984e+04 9.18225000e+04 3.23968633e+04 3.18604004e+04
      6.78585781e+04 9.15381484e+04 3.26235547e+04 3.52961914e+04
      9.62738594e+04</_>
    <_>
      3.31268237e+03 3.97633026e+02 1.54414368e+03 9.43750684e+03
      1.14624426e+03 2.31569405e+01 1.27445900e+02 9.55065308e+01
      3.54868317e+01 7.01354523e+01 2.88518333e+01 3.16227770e+00 22. 0.
      2.24493988e+02 3.32666479e+03 3.30308765e+03 1.84634863e+03
      6.37351074e+02 1.91817358e+03 2.40454395e+03 9.47665283e+02
      7.89471497e+02 3.25312347e+02 6.56506836e+02 3.88560059e+02
      1.55331055e+03 4.64127051e+03 6.16545166e+03 1.43120361e+03
      1.73457983e+03 3.98462427e+03 2.87805267e+02 1.28062487e+01
      2.03500244e+02 1.64441199e+03 6.53855371e+03 1.47836292e+03
      1.59487939e+03 3.63589258e+03 2.05511621e+03 2.99279804e+01
      4.47213602e+00 5.83503838e+01 2.04794556e+02 1.07000961e+02
      2.69243698e+01 1.27030853e+02 8.41269775e+02 2.06203027e+03
      1.56822620e+03 5.37121533e+03 5.66179443e+03 1.00191302e+03
      2.05957373e+03 4.27266895e+03 4.53116846e+03 1.48037500e+03
      3.55600293e+03 1.85230078e+04 9.11455078e+03 3.50442651e+03
      6.54626770e+02 9.01615906e+02</_>
    <_>
      1.65113489e+03 2.10181641e+02 6.43722473e+02 1.03240112e+03
      1.66664758e+03 1.78640274e+02 1.48808777e+02 0. 8.10817566e+01 0.
      7.21110229e+01 2.19187592e+02 1.23238828e+04 2.24451172e+03
      8.44474976e+02 6.59101318e+02 6.45225928e+03 6.37982275e+03
      7.11764551e+03 4.55102295e+03 5.97548193e+03 2.16933057e+03
      2.31994434e+03 3.19278442e+03 3.14081323e+03 1.09087756e+03
      1.44647070e+03 2.39049316e+03 4.45629199e+03 5.53424414e+03
      6.08914746e+03 7.71219873e+03 8.69414453e+03 4.56756592e+03
      5.80894922e+03 2.37200488e+04 9.34644043e+03 7.67896045e+03
      8.15981885e+03 3.08368945e+03 8.75354395e+03 3.44853809e+03
      7.46346582e+03 2.08644648e+04 3.84050117e+04 5.53010645e+03
      4.56586084e+03 4.01444531e+03 2.06337598e+04 2.53816211e+04
      2.92641250e+04 4.88172656e+04 3.90731211e+04 3.02486777e+04
      2.90517676e+04 4.05722852e+04 2.73927734e+04 4.80259922e+04
      4.22449531e+04 3.54001992e+04 3.73838750e+04 4.73969414e+04
      3.43176758e+04 3.93066172e+04</_>
    <_>
      1.34013458e+02 2.99847192e+03 1.18444751e+03 0. 5.90121918e+01 0.
      0. 1.61445175e+02 3.18963104e+02 3.72555695e+02 6.06628609e+01
      2.92243347e+01 8.99812927e+01 8.09338684e+01 1.04887993e+02
      1.03630249e+02 3.80234937e+03 2.82901660e+03 5.27457031e+03
      2.07268091e+03 3.76143701e+03 2.79090771e+03 1.54244495e+03
      5.54018359e+03 3.91574951e+03 3.79824243e+03 1.99060632e+03
      1.64999670e+03 5.25315918e+03 2.23343457e+03 3.35933984e+03
      3.72573999e+03 2.10324072e+03 8.99797729e+02 4.61731445e+03
      1.10857529e+04 2.79638794e+03 7.56293518e+02 6.18277100e+02
      3.44473816e+02 1.58211206e+03 2.86485352e+03 7.48731787e+03
      1.65786152e+04 6.60064111e+03 3.36529004e+03 1.34206360e+03
      2.52456543e+02 1.12731699e+04 9.79696191e+03 8.11836963e+03
      3.42337891e+04 2.47314902e+04 9.02391797e+03 8.10449072e+03
      1.07983242e+04 1.45447617e+04 9.55905859e+03 1.54666299e+04
      1.90467305e+04 1.57208369e+04 1.26335088e+04 4.29241113e+03
      1.21906797e+04</_>
    <_>
      5.86743225e+02 8.24094177e+02 6.29653992e+02 2.96178882e+03
      4.83622461e+03 7.36983521e+02 3.47145203e+02 6.99116577e+02
      6.61124023e+02 4.20286560e+02 4.01989136e+02 2.12770752e+03
      1.70443164e+03 6.17823853e+02 6.79984375e+02 3.71100769e+02
      2.33433203e+03 7.26205688e+02 4.11277832e+02 2.37568579e+03
      1.10194199e+04 1.12346948e+03 8.98722961e+02 1.10579590e+03
      1.81847437e+03 3.96500513e+03 4.17954639e+03 3.65002759e+03
      4.64538623e+03 9.62489136e+02 1.87555493e+03 2.93332812e+03
      2.80534985e+03 1.06300171e+03 1.32203064e+03 9.05056641e+03
      1.03147676e+04 3.17552734e+03 1.64125330e+03 8.46317200e+02
      8.56276611e+02 1.45772659e+02 5.67381897e+02 8.63280566e+03
      3.81917505e+03 8.02867310e+02 4.35942474e+02 7.96604065e+02
      5.64271875e+03 5.84261133e+03 6.15709766e+03 1.27357402e+04
      1.91036250e+04 5.45887549e+03 4.43625244e+03 3.61306079e+03
      5.43492578e+03 3.28146875e+03 3.81354980e+03 1.10363936e+04
      2.40798203e+04 7.63913184e+03 3.01568237e+03 2.66955176e+03</_>
    <_>
      6.37869690e+02 4.12346954e+02 1.42869263e+03 5.13388428e+02
      1.29538965e+03 5.89947205e+02 2.88275787e+02 4.20417175e+02
      5.29687317e+02 1.17566216e+02 2.00647095e+02 2.99096649e+02
      4.92324615e+02 2.48854797e+02 6.38122292e+01 3.80788651e+01
      2.86955298e+03 1.01200378e+03 4.40938110e+02 1.34818652e+03
      3.82124854e+03 1.84488367e+03 1.50500232e+03 1.38782520e+03
      2.34401782e+03 7.37317566e+02 2.61728613e+03 3.57673804e+03
      3.14722559e+03 5.87266357e+02 1.02777258e+03 2.42335205e+03
      9.00555908e+02 2.83757111e+02 1.52424683e+03 7.35034375e+03
      6.93059033e+03 2.16698926e+03 7.99712585e+02 2.41361099e+02
      6.39127136e+02 2.96493652e+02 1.23234570e+03 1.70151062e+03
      2.00011133e+03 7.30319946e+02 3.56957794e+02 1.83672058e+02
      3.45551562e+03 1.88680298e+03 5.88980908e+03 2.94469434e+04
      1.69536309e+04 4.17752979e+03 3.06616797e+03 4.07676221e+03
      6.19111963e+03 3.16273071e+03 4.39286328e+03 2.92537070e+04
      2.70907109e+04 6.12034521e+03 2.52132153e+03 3.37082788e+03</_>
    <_>
      1.58755688e+03 4.43376495e+02 8.12277222e+02 2.08084521e+03
      1.17253540e+03 2.72897949e+02 1.55563488e+01 1.62885339e+03
      4.66702197e+03 1.15781274e+03 2.38537216e+02 7.48650696e+02
      1.10195129e+03 1.07823936e+02 4.86562195e+02 2.69109521e+03
      1.31120762e+04 3.03803027e+03 1.28788550e+03 1.49736316e+03
      2.68050708e+03 1.29993896e+03 1.98082349e+03 1.65402734e+04
      1.10731328e+04 1.49432410e+03 1.15755957e+03 2.83189966e+03
      2.27586304e+03 2.03910461e+03 1.56057544e+03 1.31172188e+04
      1.22350518e+04 1.75462744e+03 2.37922461e+03 1.39288984e+04
      1.61139121e+04 3.16761938e+03 3.43090405e+03 1.23900840e+04
      6.29272803e+03 2.49907056e+03 4.02232397e+03 6.31938574e+03
      6.51292139e+03 5.02757666e+03 3.06030786e+03 7.33352246e+03
      4.82199258e+04 2.41018887e+04 2.66548926e+04 6.85987266e+04
      7.52722578e+04 2.70620586e+04 2.11100254e+04 6.38243320e+04
      5.85583398e+04 2.25285156e+04 2.40546562e+04 7.47986094e+04
      8.56632031e+04 2.74440195e+04 2.29604785e+04 4.29460234e+04</_>
    <_>
      4.54628754e+02 4.94974747e+01 2.53985764e+02 8.03753540e+02
      4.72760547e+03 2.39289648e+03 4.08132690e+02 1.84754395e+02
      2.91373535e+02 4.41296204e+02 1.16815109e+02 5.54498474e+02
      2.57473053e+02 6.53615967e+02 4.83778137e+02 8.48999481e+01
      2.54701367e+03 3.07841211e+03 7.14311584e+02 3.63227344e+03
      5.17117725e+03 4.19573578e+02 5.93343124e+01 5.88977234e+02
      3.03503784e+02 9.00862305e+02 1.49810413e+03 3.18574512e+03
      9.82345117e+03 7.09016309e+03 3.35152197e+03 1.68982898e+03
      3.81998730e+03 1.79161938e+03 2.11918555e+03 1.92570276e+03
      4.42565771e+03 9.61551636e+02 9.08658020e+02 9.29291748e+02
      1.53245496e+03 5.70880615e+02 1.42424329e+03 4.64165625e+03
      1.09331016e+04 1.13739590e+04 3.41202490e+03 1.86334204e+03
      2.44227715e+04 1.61132793e+04 1.10763994e+04 1.67425078e+04
      2.65846602e+04 1.71212812e+04 2.10479297e+04 3.91706289e+04
      3.70674648e+04 2.15203008e+04 1.60802754e+04 1.52190977e+04
      3.22583789e+04 3.64819570e+04 4.48833203e+04 4.14741953e+04</_>
    <_>
      1.65297058e+02 9.33495560e+01 1.05556732e+02 0. 1.80431183e+02
      5.14781532e+01 0. 0. 1.33564804e+02 3.38328156e+02 2.51034225e+02
      1.03582544e+03 5.45478027e+03 2.82061157e+03 1.36219702e+03
      1.26400658e+02 1.50035571e+03 1.95170117e+03 1.73091101e+03
      5.47928662e+03 8.50386816e+03 2.00241907e+03 1.35090283e+03
      7.03997253e+02 1.48137939e+03 2.00779248e+03 4.01516284e+03
      4.69948633e+03 9.35803320e+03 5.84551172e+03 3.57363354e+03
      4.02175684e+03 1.39936951e+03 4.11676666e+02 3.56068207e+02
      6.38922485e+02 9.94039001e+02 1.40128723e+03 4.16103119e+02
      1.61238208e+03 1.85717297e+03 3.04356665e+03 4.26019629e+03
      5.91008984e+03 9.53046484e+03 1.04899707e+04 4.40739111e+03
      8.49688232e+02 3.00415332e+04 2.18493574e+04 1.33630469e+04
      1.46517803e+04 2.78339258e+04 2.38529473e+04 2.81761875e+04
      5.33650352e+04 4.89324961e+04 2.82886172e+04 2.09242383e+04
      1.93253184e+04 3.11563867e+04 6.07339023e+04 4.96612734e+04
      5.46605508e+04</_>
    <_>
      1.94904028e+03 8.21398499e+02 1.05445044e+03 7.54364209e+03
      6.16332178e+03 5.78718994e+02 6.72051010e+01 7.07106829e+00 414.
      4.22130402e+02 8.42318268e+01 9.87239502e+02 2.53260498e+02 0.
      2.82842708e+00 2.57548608e+03 7.63530811e+03 3.03471771e+02
      6.67331238e+02 8.06853271e+03 4.85953857e+03 1.92476123e+03
      1.14438684e+03 1.30558655e+03 4.03000122e+03 1.60812354e+03
      2.77407593e+03 1.29335957e+04 4.07017139e+03 3.78671265e+02
      4.86325714e+02 1.47777676e+04 1.92904456e+03 1.00257281e+03
      1.73441968e+03 7.72059473e+03 3.40395898e+03 1.35713928e+03
      1.11331873e+03 3.38295752e+03 6.19877930e+03 9.33522644e+01
      1.29740356e+02 6.47838196e+02 1.65788953e+03 3.37667389e+02
      3.56130524e+02 1.42329681e+02 3.28357495e+03 5.61468359e+03
      8.27860059e+03 6.68515527e+03 4.22125488e+03 2.09342285e+03
      2.42724683e+03 8.91201562e+03 9.87506836e+03 3.59075122e+03
      3.51540259e+03 2.48339648e+04 1.12299258e+04 3.11047168e+03
      3.65111230e+03 4.10347607e+03</_>
    <_>
      7.56330078e+02 5.19548889e+02 3.94216370e+02 4.33046582e+03
      6.11917139e+03 2.82399231e+02 3.82369812e+02 3.79601044e+02
      1.16875330e+03 5.41602844e+02 7.48382874e+01 2.64043518e+02
      6.78075073e+02 6.80131287e+02 1.19410080e+02 5.92850098e+02
      6.04359912e+03 1.33072754e+03 6.72511536e+02 1.48741003e+03
      9.77320312e+03 3.67889917e+03 2.34985327e+03 3.09726587e+03
      2.60767114e+03 1.67225769e+03 4.33326465e+03 1.20575234e+04
      2.70904517e+03 2.81374976e+03 1.61776880e+03 7.98830615e+03
      3.04230200e+03 1.51843921e+03 2.91665479e+03 8.35849316e+03
      4.47855762e+03 1.76440735e+03 4.66483368e+02 3.76605005e+03
      6.94602734e+03 1.23269238e+03 1.45715308e+03 2.10903589e+03
      2.44185107e+03 9.84179504e+02 1.21956512e+02 3.97465637e+02
      1.09598633e+04 6.72803027e+03 1.20662881e+04 2.81813281e+04
      1.77424727e+04 9.03739648e+03 7.25750000e+03 1.77180449e+04
      1.91158066e+04 3.70587451e+03 8.49158105e+03 4.13579570e+04
      3.34081172e+04 1.22149834e+04 5.51634570e+03 8.95560938e+03</_>
    <_>
      1.34000403e+03 2.95713867e+02 8.61729126e+01 2.99700348e+02
      6.26757874e+02 2.00212173e+02 7.95712463e+02 1.42556091e+03
      1.73267004e+03 2.13029602e+02 2.03368622e+02 3.64965744e+01
      2.33081757e+02 2.75021606e+02 8.80007385e+02 1.08756885e+03
      9.32658984e+03 1.48846191e+04 6.67120068e+03 1.32891675e+03
      4.77130762e+03 1.96711865e+03 1.12870154e+03 1.57157544e+03
      1.63093494e+03 1.32908875e+03 3.21772314e+03 1.58226880e+03
      7.22228809e+03 8.17827197e+03 3.56612378e+03 2.12305005e+03
      1.57601953e+04 5.68648096e+03 4.81857031e+03 3.13880322e+03
      5.81587451e+03 5.26591064e+03 3.46461255e+03 7.35481592e+03
      1.29825342e+04 5.34719189e+03 3.26025415e+03 2.83616431e+03
      1.73848767e+03 1.98703345e+03 2.74370190e+03 8.85510645e+03
      1.77546992e+04 2.21447852e+04 2.25702090e+04 2.66455801e+04
      2.37569453e+04 1.32109561e+04 1.51055869e+04 1.06796416e+04
      2.10945762e+04 2.37146934e+04 1.83316641e+04 4.25848672e+04
      2.70930625e+04 1.81911270e+04 1.92584766e+04 1.22546729e+04</_>
    <_>
      4.75172461e+03 5.08931104e+03 1.12369336e+03 3.27032373e+03
      6.18909082e+03 3.16302710e+03 1.20669312e+03 0. 2.56814758e+02 0.
      0. 7.10568619e+01 132. 0. 9.89949417e+00 8.79946387e+03
      9.40295898e+03 3.16002319e+03 6.72932764e+03 4.11887012e+03
      7.31536865e+03 1.98646118e+03 4.66953174e+03 2.27327271e+03
      1.92068347e+03 2.34398242e+03 2.31312793e+03 2.34398291e+03
      7.72784668e+03 1.06708652e+04 1.41543350e+04 1.37339990e+04
      5.71778613e+03 8.46002148e+03 4.72616992e+03 4.34435938e+03
      7.48310400e+03 1.55147471e+04 9.64457422e+03 5.67139014e+03
      8.15219336e+03 2.51215527e+03 2.75620630e+03 4.82893457e+03
      3.54157104e+03 3.55617383e+03 2.80577246e+03 3.67756958e+03
      1.84413848e+04 1.97159258e+04 2.59444727e+04 2.32119004e+04
      3.04662676e+04 2.02961523e+04 1.90079941e+04 1.61994766e+04
      2.68491621e+04 4.11878086e+04 3.10561914e+04 3.95884219e+04
      2.45732852e+04 2.25164219e+04 2.03907402e+04 1.63694482e+04</_>
    <_>
      1.35858368e+02 1.87340012e+02 2.15717514e+02 2.72719696e+02
      3.07365662e+02 5.32353287e+01 4.44245796e+01 1.09732491e+02
      1.90481995e+02 1.02638145e+02 6.78053818e+01 5.54464226e+01
      1.50272781e+02 4.14085236e+01 3.17457867e+01 7.50266724e+01
      6.50358765e+02 1.76852585e+02 4.24222473e+02 3.57790863e+02
      8.90265625e+02 6.99023056e+01 1.81251160e+02 6.46776047e+01
      2.01706100e+02 1.05445137e+02 3.14371948e+02 1.03064319e+03
      1.02718774e+03 2.33998474e+02 5.94016724e+02 8.89827393e+02
      1.88198044e+02 2.63594513e+02 5.46489807e+02 3.51838892e+03
      2.90234351e+03 3.11221710e+02 1.58113871e+01 2.10237961e+01
      1.69124023e+02 4.80832596e+01 1.22574188e+02 7.85962097e+02
      4.31749573e+02 4.11967651e+02 4.82223541e+02 0. 6.42824280e+02
      9.72853394e+02 1.67172095e+03 1.47383704e+03 1.49894519e+03
      2.62266144e+02 2.49842117e+02 1.39469940e+02 1.36320145e+02
      3.24447540e+02 7.91881775e+02 2.88653369e+03 2.27172705e+03
      2.39065735e+02 1.12276955e+02 5.47443466e+01</_>
    <_>
      8.24529663e+02 3.49175507e+02 2.33730453e+02 1.43534534e+03
      5.28594788e+02 1.16392822e+02 1.41581451e+02 9.50373230e+01
      1.55832870e+02 0. 0. 1.52970581e+01 1.11281189e+03 1.70347122e+02
      1.47716003e+02 5.76118896e+02 232. 5.05371170e+01 1.60374298e+02
      5.82841675e+02 2.02484570e+01 0. 0. 0. 8. 0. 2.00772064e+02
      7.04296997e+02 5.46693359e+02 9.09714203e+01 3.30322388e+02
      2.21359444e+01 10. 0. 0. 8.82649475e+02 6.65757019e+02
      2.81081421e+02 3.88968048e+02 2.26371033e+02 2.51002686e+02
      5.61625793e+02 2.00663895e+02 3.10399109e+02 4.86187317e+02 0. 0.
      0. 0. 3.12410011e+01 1.16764725e+02 1.38751602e+02 80.
      1.17918091e+02 1.51718643e+02 0. 2.15362747e+02 1.47752243e+02
      1.03227905e+02 1.23036583e+02 1.77543640e+02 0. 0. 5.10881577e+01</_>
    <_>
      8.64667358e+02 1.04364478e+03 5.86512939e+02 8.47766907e+02
      2.51031348e+03 2.55637115e+02 8.85682602e+01 3.78604340e+02
      4.20127014e+02 4.43129425e+02 1.95023254e+02 2.00997505e+01
      4.17574677e+02 5.94138031e+01 1.38264648e+02 3.72048096e+03 612.
      0. 0. 0. 0. 0. 0. 0. 202. 0. 2.80642273e+02 3.36902588e+02
      1.63639343e+02 1.01212646e+02 3.00832184e+02 3.34655060e+02 0. 0.
      0. 0. 488. 0. 0. 0. 0. 0. 0. 0. 1.18000008e+02 0. 0. 0. 0. 0. 0.
      0. 0. 0. 0. 0. 0. 0. 0. 0. 134. 0. 0. 0.</_>
    <_>
      2.22657910e+03 1.44213928e+02 5.01836090e+02 7.29186890e+02
      2.89390845e+03 6.21771660e+01 6.80296326e+01 4.00621796e+02
      9.62742554e+02 1.18233757e+02 4.42040749e+01 5.04626694e+01
      1.14135948e+02 2.27230881e+02 4.80797241e+02 1.41586511e+03 440.
      2.12132034e+01 0. 0. 0. 0. 0. 1.55003220e+02 2.90081604e+02
      4.70106392e+01 3.38682098e+02 1.41760361e+02 7.18871216e+02
      3.14100769e+02 3.65978149e+02 5.01163513e+02 0. 0. 0. 0. 328.
      2.50059998e+02 2.58588470e+02 8.40420776e+02 1.02663757e+03 0. 0.
      0. 6. 0. 0. 0. 0. 0. 0. 0. 0. 0. 0. 0. 2.79170593e+02
      1.82439026e+02 0. 0. 142. 0. 0. 0.</_>
    <_>
      8.53877625e+02 4.52318939e+02 8.68975769e+02 1.62489758e+03
      1.97054675e+03 5.03651093e+02 1.77292801e+02 3.64965744e+01
      3.82586456e+02 1.49282501e+02 6.96562958e+01 2.78609375e+02
      5.35667542e+02 0. 1.80491669e+02 1.74163220e+03 1.22235022e+03
      3.99291412e+02 0. 6.07289047e+01 3.65914886e+02 3.19369171e+02
      4.75075684e+02 6.47765350e+01 90. 4.76505920e+02 2.36245438e+02
      1.34783813e+03 4.08612720e+03 1.33943823e+03 7.61926392e+02
      9.73537903e+02 1.06144958e+02 0. 1.20005280e+02 1.10888074e+03
      1.54329077e+03 5.79332092e+02 4.08563171e+02 1.39267041e+03
      4.78142548e+02 5.20000038e+01 0. 9.56462250e+01 1.42962555e+02
      1.02019165e+02 2.73129997e+01 0. 2.86408722e+02 1.89629257e+02
      3.62491379e+01 0. 56. 1.44269745e+02 0. 2.39863983e+02
      6.99745056e+02 2.74219360e+02 4.01807800e+02 1.63449463e+03
      1.36462573e+03 1.59530563e+02 2.94951538e+02 5.77061539e+01</_>
    <_>
      3.63929614e+03 1.45211475e+03 1.42241724e+03 2.32551904e+03
      1.22339661e+03 3.25124603e+02 1.79111069e+02 3.98671967e+02
      8.92889648e+02 2.87345367e+02 4.64124481e+02 2.21655182e+02
      2.48183807e+02 2.86849243e+02 4.04890076e+02 1.45474158e+03
      3.73265000e+04 5.29937927e+02 2.69719086e+02 2.90586914e+02
      7.16474121e+02 1.77523010e+02 7.12847656e+02 7.47388672e+03
      8.58189941e+03 4.72980560e+02 2.03845001e+02 8.51654419e+02
      1.63088501e+03 1.06836035e+03 6.42127502e+02 2.01251641e+04
      1.75987329e+03 6.13692505e+02 1.06697107e+03 3.30847891e+04
      3.43409648e+04 1.34896350e+03 1.59703003e+03 8.76076294e+02
      2.63631641e+03 1.65937366e+03 3.48656934e+03 8.96292676e+03
      5.82816748e+03 2.47605103e+03 2.00661475e+03 7.28896545e+02
      5.02013281e+04 2.06413672e+04 2.65133320e+04 4.60493633e+04
      3.25971348e+04 2.20998105e+04 1.48806260e+04 5.72175117e+04
      7.18979844e+04 1.97402480e+04 2.26863047e+04 4.69218516e+04
      5.42656719e+04 2.02797168e+04 1.97038535e+04 4.44676562e+04</_>
    <_>
      1.16899036e+03 2.79462891e+02 4.95494537e+02 1.88897205e+03
      9.06978638e+02 3.82883797e+01 6.25242882e+01 0. 20. 0. 0.
      1.15084969e+02 1.61615918e+03 3.46639404e+02 2.06871536e+02
      2.91720276e+02 3.00345117e+03 5.48436707e+02 1.17388245e+02
      1.97135635e+02 2.62006006e+03 6.42065491e+02 4.83111176e+02
      1.52085495e+02 4.16971802e+02 4.84937897e+02 6.93049377e+02
      1.36695264e+03 5.25634912e+03 6.26584106e+02 8.39596130e+02
      2.61887085e+03 9.40454254e+01 7.38318176e+01 3.98506836e+02
      3.52203613e+03 9.85834277e+03 8.81307251e+02 4.48450714e+02
      2.78567753e+01 3.54287598e+02 1.68567505e+02 4.87178528e+02
      3.55604126e+03 2.16411279e+03 7.04065125e+02 4.42040749e+01
      2.20907211e+01 4.84325745e+02 1.60653091e+02 6.39254150e+02
      6.43467676e+03 4.68452686e+03 1.41875549e+02 3.95828766e+02
      1.44197119e+03 1.69110120e+03 5.57904053e+02 3.92103821e+02
      6.47717480e+03 1.33603262e+04 8.93846252e+02 6.44306885e+02
      4.43274231e+02</_>
    <_>
      1.01932510e+02 2.17802643e+02 2.76535522e+02 1.26982385e+03
      1.06481421e+03 1.26049118e+02 1.27790886e+02 0. 6.91622772e+01
      2.24330383e+02 4.77123718e+01 8.99892273e+02 8.43363220e+02
      1.55859436e+02 1.86378937e+02 8.98304291e+01 8.27661972e+01
      1.84631023e+01 1.22834183e+02 2.18786545e+02 1.72246460e+02
      1.08910591e+02 4.86219330e+01 2.08885880e+01 2.43418198e+02
      1.23296478e+02 4.08868904e+01 1.06151566e+02 4.81338409e+02
      5.77663391e+02 1.17464575e+03 6.00325256e+02 4.08056152e+02
      4.83613922e+02 3.81879272e+02 1.31787061e+04 4.62064746e+03
      4.10354919e+02 6.40512268e+02 5.09901953e+00 3.08653717e+02
      6.21288986e+01 8.45341339e+01 6.11684668e+03 3.61763721e+03
      1.40455734e+02 4.28018684e+01 3.96232262e+01 1.90990442e+03
      7.88695435e+02 1.50777393e+03 1.82044312e+03 1.45243555e+03
      9.41595764e+02 1.23763757e+03 1.07460925e+03 1.44281641e+03
      7.05020068e+03 1.80029700e+03 1.51968481e+03 2.01270081e+03
      3.60944019e+03 6.17385742e+03 1.22404968e+03</_>
    <_>
      6.94868317e+01 0. 1.42126694e+01 0. 4.92103394e+02 5.68284485e+02
      3.79460620e+03 7.66608154e+02 4.91888062e+02 7.26667725e+02
      1.13434399e+03 6.51676758e+03 2.46106836e+03 0. 0. 3.22800255e+01
      3.57550964e+01 6.46254883e+01 9.52944794e+01 1.01655830e+02
      4.23106049e+02 1.53989355e+03 9.89193652e+03 8.46256409e+02
      5.43964600e+02 2.61746155e+02 2.70831116e+02 4.17310645e+03
      5.94350000e+03 1.30153711e+03 1.24384712e+02 1.24303169e+02
      8.12815613e+02 1.11261816e+03 7.44612610e+02 4.10349805e+03
      3.83987939e+03 6.58782837e+02 1.52258804e+02 2.17852325e+02
      9.25664551e+02 5.55802002e+02 4.78738800e+02 4.79998281e+04
      1.27159170e+04 2.83053833e+03 6.03431091e+02 2.39876785e+02
      3.89608301e+03 4.43116211e+03 2.71187280e+03 1.12535244e+04
      7.33666211e+03 5.24484229e+03 1.86283613e+04 1.00516689e+04
      1.14701357e+04 1.38538291e+04 7.34067041e+03 9.98636230e+03
      6.47009229e+03 7.16108350e+03 8.23153906e+03 5.36108203e+03</_>
    <_>
      2.71622772e+01 5.65685415e+00 0. 3.16227770e+00 24. 0. 0. 0. 0. 0.
      0. 0. 0. 0. 0. 0. 1.17711731e+03 8.20272217e+02 8.78027344e+02
      1.85217163e+03 1.35772900e+03 5.56949658e+03 7.63601172e+03
      1.38542004e+03 4.38393457e+03 1.56738682e+04 9.06389587e+02
      2.49307104e+03 1.18665967e+04 1.62962585e+03 1.30409241e+03
      1.20204272e+03 1.07903699e+03 5.11435974e+02 2.88474121e+02
      6.79400513e+02 7.77892883e+02 3.94729980e+02 4.52699677e+02
      5.97151794e+02 4.33893457e+03 8.88369824e+03 7.10385071e+02
      1.44750415e+03 5.65606006e+03 7.01400293e+03 6.11529834e+03
      2.20971802e+03 2.14694531e+04 7.43538359e+04 8.51931738e+03
      6.34531738e+03 1.03897783e+04 3.26288672e+04 3.09078105e+04
      1.67205449e+04 2.56173750e+04 6.93308984e+04 1.95236152e+04
      3.82127344e+04 2.75529453e+04 5.30902422e+04 4.94264453e+04
      1.12459287e+04</_>
    <_>
      5.59634705e+02 1.77666840e+02 1.31946960e+02 9.64741577e+02
      1.51876477e+03 7.39778748e+01 1.30842087e+02 2.16065186e+02
      5.15951172e+02 5.12172302e+02 9.66016968e+02 2.68657202e+03
      7.52512793e+03 0. 8.68331757e+01 3.83171509e+02 3.53636255e+03
      3.79273560e+02 5.91374084e+02 8.06275024e+02 1.21740588e+03
      5.45062866e+02 1.46112573e+03 4.59062598e+03 2.82053076e+03
      9.35524231e+02 6.17159851e+02 1.11361157e+03 1.85609241e+03
      4.77395599e+02 6.24068420e+02 4.46842432e+03 1.64429468e+03
      5.22845276e+02 3.53963593e+02 9.72389648e+03 6.89766504e+03
      1.53902283e+02 2.43482544e+02 6.08770569e+02 1.91949158e+03
      3.25664368e+02 2.53600293e+03 2.85548047e+04 1.49035859e+04
      3.01941187e+03 4.62181824e+02 9.75583679e+02 4.92958496e+03
      3.11104663e+03 5.85538379e+03 1.75129707e+04 1.65901738e+04
      4.08932715e+03 2.52905493e+03 4.12769922e+03 6.25920654e+03
      3.71168188e+03 5.82487354e+03 2.01897227e+04 1.53677627e+04
      4.62135596e+03 3.28142114e+03 4.80200537e+03</_>
    <_>
      6.79611572e+02 3.25824219e+02 0. 2.04284119e+02 0. 1.00833801e+03
      1.33563281e+03 2.73894531e+03 3.88461255e+03 8.93076782e+02
      3.13211084e+03 4.15544238e+03 1.61245155e+01 0. 8.48528099e+00
      4.45468964e+02 5.47468262e+03 7.69931091e+02 1.88794952e+02
      5.47819214e+02 1.58610242e+03 5.65611145e+02 1.66746350e+03
      5.65678750e+04 1.15662002e+04 1.56781628e+03 1.30340271e+03
      3.34397852e+03 3.40571973e+03 2.00609937e+03 1.33335901e+03
      1.19443926e+04 7.10340967e+03 9.67740540e+02 2.44831226e+03
      2.09468477e+04 1.64911660e+04 1.72396741e+03 1.38493665e+03
      1.45916650e+03 3.39336768e+03 6.68829590e+02 1.70399805e+03
      5.68952344e+04 3.12934082e+04 3.29642798e+03 1.26221545e+03
      8.40035059e+03 3.88694141e+04 1.74515430e+04 1.58004824e+04
      5.31069141e+04 4.46619141e+04 1.32361406e+04 1.60814014e+04
      7.08995938e+04 5.16077148e+04 1.74180508e+04 1.60573398e+04
      5.70017617e+04 5.41517969e+04 1.49443604e+04 2.09892773e+04
      1.25545445e+05</_>
    <_>
      1.93003098e+02 4.25028809e+02 4.25721619e+02 8.82832520e+02
      8.41258057e+02 0. 7.78702209e+02 9.55761047e+02 1.64080261e+03
      6.65299133e+02 1.31233911e+03 2.92133960e+03 2.10741382e+03 0.
      6.77205963e+01 4.30240051e+02 7.40582568e+03 1.50966931e+03
      6.84451355e+02 1.48101672e+03 3.16940771e+03 1.24352942e+03
      1.33581128e+03 4.16527393e+03 7.01307373e+03 2.59153882e+03
      1.59492993e+03 2.80232690e+03 5.05670459e+03 1.28479773e+03
      3.34461914e+03 1.23645400e+04 5.69676697e+02 1.79917920e+03
      1.47407202e+03 3.24973535e+03 3.47621436e+03 1.90048633e+03
      1.22705139e+03 6.61814575e+02 8.15134521e+02 5.91763489e+02
      2.94739838e+02 1.41385371e+04 1.63848750e+04 7.11660339e+02
      7.09691833e+02 9.10556946e+02 4.01435791e+03 5.51952588e+03
      8.73982422e+03 2.36255215e+04 3.22214551e+04 7.42583496e+03
      4.58073975e+03 7.53359131e+03 1.37264805e+04 6.73017920e+03
      7.90302246e+03 3.45059922e+04 2.77152637e+04 7.95667236e+03
      5.59088184e+03 4.88679541e+03</_>
    <_>
      1.82782440e+02 1.15432034e+01 0. 5.09901953e+00 16. 0.
      1.29145493e+02 9.61828308e+02 4.89386328e+03 6.82243652e+02
      6.10793762e+02 7.59629395e+02 0. 0. 9.99027863e+01 1.23600555e+02
      5.73643945e+03 7.15845825e+02 2.29545242e+02 3.55110107e+03
      5.93544336e+03 3.16993677e+03 1.52544226e+03 3.79891846e+03
      3.86382656e+04 1.50236255e+03 1.42854407e+03 7.56516052e+02
      3.47779663e+03 1.12447937e+03 9.99415100e+02 2.43401392e+03
      9.19610962e+02 2.46958786e+02 6.41035828e+02 1.41573066e+04
      1.21644766e+04 1.40282092e+03 8.82339233e+02 8.33000488e+02
      3.12972839e+02 1.78247574e+02 2.02887927e+03 2.63452559e+04
      3.05605527e+04 5.60944727e+03 2.67780518e+03 2.58195251e+02
      4.44434102e+04 1.30693936e+04 1.49248467e+04 3.86032656e+04
      6.16280586e+04 2.63288535e+04 1.27920176e+04 1.27088369e+04
      2.31774941e+04 9.51957812e+03 1.17915645e+04 3.19277207e+04
      6.12217305e+04 2.39574121e+04 1.56089648e+04 1.45025566e+04</_>
    <_>
      9.11785400e+02 0. 0. 7.15068436e+01 2. 0. 1.59407425e+02
      2.50576874e+02 3.28364062e+03 6.17481750e+02 4.51217194e+02
      3.45296082e+02 8.85801926e+01 0. 0. 2.94937836e+02 1.20018330e+04
      6.48310181e+02 5.86648865e+02 7.53307129e+02 6.92549658e+03
      2.19360181e+03 7.90860046e+02 4.64715576e+03 5.15322148e+04
      1.35750537e+03 8.24783569e+02 5.55063171e+02 1.94197449e+03
      1.95698151e+02 1.36955994e+03 4.86024316e+03 9.40054871e+02
      6.81950439e+02 8.62762390e+02 6.64585645e+03 3.86890430e+04
      1.37780823e+03 1.21242334e+03 1.36250879e+03 1.49230505e+03
      5.11845673e+02 1.29426636e+03 1.52230801e+04 6.53365117e+04
      3.49587451e+03 4.49943085e+02 3.55112274e+02 7.73654531e+04
      1.94514902e+04 2.47598047e+04 6.77921484e+04 8.67198203e+04
      2.30642578e+04 1.53625254e+04 2.38600137e+04 4.81782539e+04
      1.56423252e+04 2.17692930e+04 5.05106445e+04 8.98086094e+04
      2.61484219e+04 1.57559414e+04 2.34134980e+04</_>
    <_>
      9.49739380e+02 2.51394669e+02 1.17935522e+03 1.24856702e+03
      1.86797437e+03 3.72941467e+02 2.19357239e+02 1.83499664e+02
      4.12311554e+02 7.06914368e+02 2.08462158e+02 3.74810474e+03
      4.42180469e+03 9.05579834e+02 3.03094421e+02 3.47850571e+01
      9.54052246e+03 4.39695801e+03 4.18022021e+03 6.29771680e+03
      6.53865967e+03 2.54173657e+03 3.03459253e+03 4.40250098e+03
      3.93153442e+03 3.44525391e+03 1.76505847e+03 2.91848853e+03
      8.33418164e+03 4.77170459e+03 6.03304785e+03 1.13081611e+04
      1.38663721e+03 1.60665747e+03 2.98949561e+03 3.56250952e+03
      4.49328662e+03 1.50708850e+03 1.40148132e+03 2.81731689e+02
      1.99447546e+03 9.13614807e+02 3.65446045e+03 8.13261475e+03
      6.16485449e+03 1.30744617e+03 8.10858765e+02 9.69928894e+02
      8.64560156e+03 1.04495645e+04 2.13533691e+04 4.78483320e+04
      4.27564062e+04 1.29968232e+04 1.16030908e+04 1.34284570e+04
      1.56752900e+04 1.31494990e+04 2.32037520e+04 4.40290117e+04
      4.32096562e+04 1.40269463e+04 1.06565059e+04 8.86239551e+03</_>
    <_>
      1.83922333e+02 4.62226562e+01 7.61906052e+01 6.65729294e+01
      1.02942833e+02 0. 0. 0. 5.01359444e+01 7.52787933e+01
      7.87242661e+01 8.60557098e+01 3.47792023e+02 2.83976257e+02
      2.15117508e+02 8.86953278e+01 1.06949060e+03 2.80767871e+03
      1.78985327e+03 3.11429626e+02 5.91444519e+02 4.92337532e+01
      7.80497665e+01 6.43024292e+01 4.16547012e+01 6.53718796e+01
      5.98609619e+01 2.57211578e+02 1.70226147e+03 1.87238489e+03
      1.23183594e+03 4.61131958e+02 4.66708496e+03 1.89132727e+03
      1.73815259e+03 2.40837915e+03 5.38955908e+03 1.92896179e+03
      1.37806921e+03 5.47633850e+02 1.33778015e+03 1.32661499e+03
      3.60856110e+02 2.69503687e+03 1.72185605e+04 2.50281226e+03
      1.63058643e+03 3.15168555e+03 8.00325879e+03 9.53187305e+03
      9.87453125e+03 6.76853711e+03 6.32785742e+03 2.42314429e+03
      3.00602100e+03 7.27509082e+03 7.44158984e+03 3.28237256e+03
      5.56931934e+03 9.71370801e+03 1.00366641e+04 9.42843750e+03
      1.15651475e+04 8.28466992e+03</_>
    <_>
      1.30437851e+02 2.41199570e+01 4.93426323e+01 6.86227875e+01
      1.31750763e+02 7.70639801e+01 1.58931915e+02 1.04081146e+02
      8.14558411e+01 2.01951256e+01 4.72131424e+01 0. 1.56333389e+02
      9.27077789e+01 1.20114929e+02 9.44747009e+01 8.75746216e+02
      2.18326123e+03 1.16984021e+03 8.50437439e+02 9.83590942e+02
      2.11305786e+02 2.18951416e+02 3.18961304e+02 4.81933167e+02
      1.75095871e+02 3.71170593e+02 3.27897186e+02 1.51794336e+03
      1.21922595e+03 1.76677979e+03 6.13322815e+02 4.05010205e+03
      1.24364502e+03 8.17514648e+02 4.76840332e+02 6.73288208e+02
      2.75137109e+03 1.50129480e+03 4.42264648e+02 1.28963635e+03
      1.14822827e+03 1.93430444e+03 2.67212793e+03 2.99691479e+03
      1.45492188e+04 7.09555273e+03 3.21880103e+03 1.57571807e+04
      1.85975820e+04 1.72101367e+04 1.38839482e+04 1.31313525e+04
      1.42790527e+04 1.27837969e+04 2.14868789e+04 1.54959932e+04
      1.07444922e+04 1.02251455e+04 1.20241914e+04 2.00870391e+04
      5.45267812e+04 2.96007930e+04 2.15111426e+04</_>
    <_>
      3.11640289e+02 1.31136749e+02 1.65164520e+02 2.96784851e+02 80.
      2.69072475e+01 8.04378967e+01 2.40831909e+01 1.87375320e+02
      9.94583664e+01 0. 3.82616806e+01 1.81874771e+02 6.08587837e+01
      6.75181274e+01 1.40780930e+02 6.95565918e+02 9.89708069e+02
      3.48997986e+02 1.06683884e+02 1.97567249e+03 3.46020044e+03
      3.24467627e+03 8.43916992e+02 1.58732751e+03 2.12201489e+03
      3.44439117e+02 1.35141479e+03 2.98178052e+03 5.51016968e+02
      1.27586621e+03 9.02037537e+02 3.27515289e+02 9.17203125e+02
      3.69143463e+02 4.15945221e+02 4.71148254e+02 4.28453583e+02
      4.64083557e+02 3.83567047e+02 3.66384613e+02 3.59825806e+02
      5.58328705e+01 1.24006813e+02 1.01046234e+02 3.79286041e+02
      3.17765381e+02 1.22374641e+02 9.38360938e+03 3.44962402e+03
      6.18226318e+02 1.25057007e+03 1.58215112e+03 6.78045654e+02
      2.61454590e+03 3.19177808e+03 3.21169238e+03 1.66060864e+03
      3.83779816e+02 1.12279382e+03 1.37821814e+03 6.44596436e+02
      1.34062708e+03 8.18768018e+03</_>
    <_>
      1.37868250e+03 1.26205917e+02 1.16017242e+02 3.82013458e+02
      8.11399951e+03 1.67380371e+03 1.16071912e+03 1.32240723e+03
      1.59837418e+02 2.04868332e+02 1.64304596e+02 9.57167358e+02
      2.43973608e+03 1.23661609e+03 2.92268829e+02 6.12831909e+02
      2.42721143e+03 1.85028174e+03 1.56424744e+03 1.43127014e+03
      2.02763989e+03 4.56796234e+02 3.23015063e+03 1.69529614e+03
      1.03548462e+03 1.15953650e+03 2.60730835e+03 6.06307275e+03
      5.14170312e+03 8.24272949e+02 2.43388245e+02 6.65642090e+02
      1.73082837e+03 9.36602173e+01 5.20318848e+02 3.17726837e+02
      2.76010284e+02 5.00355927e+02 7.59425171e+02 1.54765979e+03
      6.33483008e+03 2.22794897e+03 2.33739893e+03 1.30468018e+03
      2.13349536e+03 2.16803198e+03 1.79323242e+03 2.48844873e+03
      4.97392090e+03 1.77935962e+03 9.78469360e+02 1.41242590e+03
      2.22331201e+03 1.61824890e+03 2.88986279e+03 3.18819653e+03
      4.49396387e+03 1.83187036e+03 9.72202148e+02 7.89415222e+02
      9.40687683e+02 6.87233093e+02 1.77590381e+03 5.32387793e+03</_>
    <_>
      8.14375061e+02 5.44548340e+02 3.77732422e+02 4.32300049e+02
      1.39342926e+02 8.42562408e+01 1.56855118e+02 3.86006584e+01
      8.07865372e+01 1.69705620e+01 4.30164337e+01 9.10226135e+01
      2.11272125e+02 2.32410431e+02 4.82705872e+02 5.13343018e+02
      2.34895459e+03 2.14298242e+03 1.35809436e+03 1.62132852e+04
      4.21323486e+03 8.05260803e+02 3.99370697e+02 4.16582153e+02
      8.68303833e+02 4.37819489e+02 9.83194702e+02 3.96993604e+03
      2.90532178e+03 1.01013611e+03 1.33806970e+03 7.38060400e+03
      4.68063867e+03 3.85432544e+03 4.54045996e+03 1.96901543e+04
      6.73677344e+03 1.88348157e+03 1.40411365e+03 4.26656201e+03
      5.92809814e+03 1.82232068e+03 6.79658936e+03 2.01082754e+04
      6.92596924e+03 2.30017236e+03 1.73859436e+03 3.58412256e+03
      1.59941514e+04 1.17662441e+04 1.34883350e+04 2.58696641e+04
      2.50891914e+04 2.81753242e+04 2.08143438e+04 2.66936758e+04
      2.32377168e+04 1.36227412e+04 1.21212061e+04 2.72125508e+04
      1.75101973e+04 1.02630166e+04 1.06723564e+04 2.20391934e+04</_>
    <_>
      5.05722229e+02 5.30133667e+02 5.19393311e+02 6.79995422e+02 36.
      1.30384054e+01 0. 0. 20. 0. 0. 0. 1.01210884e+02 1.19533592e+02
      5.18074280e+02 4.14159058e+02 4.46765723e+03 3.16594971e+03
      4.01407544e+03 1.16430713e+04 4.77469971e+03 3.01484497e+03
      5.32412451e+03 2.18113428e+03 2.67372314e+03 1.06670837e+03
      1.56966687e+03 5.01783203e+03 6.72259229e+03 1.89863708e+03
      2.69742041e+03 1.52419053e+04 1.01229346e+04 2.57667358e+03
      6.60235303e+03 2.23586094e+04 1.18947119e+04 3.87028345e+03
      5.19733545e+03 7.66418311e+03 9.86189551e+03 2.78185449e+03
      6.56421777e+03 1.56284355e+04 9.52238574e+03 1.41002161e+03
      2.11218042e+03 8.39667969e+03 3.00195293e+04 2.13645781e+04
      1.62397598e+04 3.31737891e+04 3.21777598e+04 3.64132812e+04
      2.31882363e+04 5.51910938e+04 4.33089102e+04 2.30869062e+04
      1.90272539e+04 3.93460742e+04 2.83223633e+04 1.34545498e+04
      2.28630215e+04 4.11037852e+04</_>
    <_>
      2.05204004e+03 1.30749536e+03 6.86388550e+02 0. 4.23315369e+02
      4.43836945e+02 5.89553589e+02 9.18006287e+02 6.11068909e+02
      3.00940857e+02 2.14380585e+02 2.63031616e+02 4.14202637e+02
      6.63975098e+02 1.11285400e+03 1.49708691e+03 8.27372253e+02
      6.42397644e+02 6.33318787e+02 3.61112762e+02 4.16146973e+02
      3.02007446e+02 2.05099823e+02 1.37720810e+02 2.96950745e+02
      1.10798813e+02 2.16391693e+02 4.40839111e+02 4.60214233e+02
      5.36095642e+02 6.20714783e+02 7.28297791e+02 1.67177617e+04
      2.76568384e+03 7.61864624e+02 3.18661591e+02 1.62951645e+02
      3.89078156e+02 8.11424133e+02 8.95908691e+03 9.43234082e+03
      2.18014575e+03 1.09535486e+03 1.62418164e+03 1.71942029e+03
      9.73592578e+03 2.98122852e+03 7.48237354e+03 1.81762578e+04
      6.78051416e+03 5.35048828e+03 3.66550391e+03 3.81944629e+03
      1.55264343e+03 1.79206873e+03 3.88103442e+03 1.66192930e+04
      5.79828955e+03 4.49867773e+03 9.00283386e+02 6.80399023e+03
      2.32079370e+03 2.31083350e+03 3.68668701e+03</_>
    <_>
      2.85866150e+02 5.54753845e+02 4.23039917e+02 3.55746765e+02
      6.41421356e+01 2.91547604e+01 7.96749954e+01 1.52907166e+02
      3.38816864e+02 1.72796967e+02 1.00578903e+02 0. 1.71923019e+02
      2.77502747e+02 1.05678882e+03 5.53414062e+02 2.07666650e+03
      1.70717725e+03 3.17355225e+02 3.28296722e+02 4.83069855e+02
      7.02958008e+02 4.22637390e+02 1.13193335e+03 6.29288086e+02
      2.76980469e+02 1.21323555e+02 1.03638245e+02 6.90676147e+02
      2.47628021e+02 2.90592682e+02 5.15070984e+02 1.96168398e+04
      2.62951807e+03 1.68312805e+03 2.59393188e+03 1.00716400e+03
      5.17380371e+02 8.42656311e+02 1.11243320e+04 7.31540186e+03
      7.28137573e+02 5.47075256e+02 7.87764954e+02 3.06344019e+03
      3.91851245e+03 5.34550684e+03 4.72630127e+03 3.20625488e+04
      7.59994824e+03 5.41013916e+03 2.45820410e+03 2.94687354e+03
      1.36582129e+03 3.20238892e+03 3.91643970e+03 1.40132529e+04
      2.99913403e+03 1.64726587e+03 1.11264990e+03 6.02082080e+03
      8.67607129e+03 5.65147510e+03 7.37232812e+03</_>
    <_>
      4.25723730e+03 6.00929947e+01 0. 1.07703295e+01 78. 0. 0.
      2.04197070e+03 1.53690613e+03 2.50325333e+02 2.79267365e+02
      1.24753387e+02 1.68283096e+02 3.85691528e+01 9.40573120e+01
      6.73407861e+03 2.87427686e+03 5.33802100e+03 6.44535059e+03
      3.56703882e+03 4.60901709e+03 2.41782227e+03 1.15641016e+03
      2.67357422e+03 3.01942383e+03 9.40721094e+03 8.48434082e+03
      3.67461255e+03 4.09053833e+03 1.68412354e+03 2.90436768e+03
      3.20046460e+03 1.34314868e+03 3.29560181e+03 4.08417212e+03
      3.38876392e+03 4.00465552e+03 6.82036560e+02 5.02151978e+02
      6.22700867e+02 3.26077100e+03 5.17888379e+03 7.02706006e+03
      2.79092358e+03 1.51954968e+03 1.07949744e+03 8.77036438e+02
      7.64011047e+02 3.02206211e+04 4.37380938e+04 4.24706562e+04
      2.31641152e+04 1.58106621e+04 1.73970371e+04 2.11166406e+04
      2.23678477e+04 2.58619004e+04 2.96482246e+04 2.73460586e+04
      2.41373965e+04 2.31486582e+04 2.06820508e+04 2.89651836e+04
      2.57057793e+04</_>
    <_>
      2.03093030e+03 4.75368896e+02 3.66025146e+02 3.70406445e+03
      2.05079492e+03 0. 0. 0. 9.86002274e+01 6.42146057e+02
      8.72598633e+02 2.40674512e+03 1.67002991e+02 1.20118393e+02
      1.97989902e+01 2.03692249e+03 1.96676758e+04 9.96433899e+02
      2.84620972e+02 9.39883972e+02 3.60550269e+03 4.58133496e+03
      2.99235400e+03 2.11082910e+03 2.68728979e+03 5.33170654e+03
      3.24913159e+03 1.79932910e+03 4.70037695e+03 1.05713953e+03
      1.37072375e+03 2.02538945e+04 6.50501648e+02 1.01405365e+03
      2.39171387e+03 2.16368477e+04 1.54971514e+04 2.63931689e+03
      1.86989734e+03 3.02047949e+03 3.38067603e+03 4.73236969e+02
      4.52825146e+03 1.19341426e+04 2.05677734e+04 3.36243018e+03
      7.52088745e+02 6.42932861e+02 2.25152344e+04 1.66214180e+04
      3.02348633e+04 6.81276094e+04 5.89063125e+04 1.76974531e+04
      1.47902744e+04 3.88069453e+04 3.29071016e+04 1.90847461e+04
      2.33583789e+04 6.57168828e+04 6.86749141e+04 2.46223965e+04
      1.23813154e+04 1.70153574e+04</_>
    <_>
      2.09747461e+03 1.87231396e+03 1.96899695e+03 2.92811572e+03
      1.18189246e+03 8.95589294e+01 0. 8.24621105e+00 80. 0. 0. 0. 132.
      1.08600189e+02 0. 2.68663971e+02 3.04992480e+04 9.82137390e+02
      7.86863403e+02 6.03708374e+02 1.79650330e+03 2.47673389e+03
      1.77297302e+03 1.60656372e+03 1.76994531e+03 2.08938477e+03
      2.45800024e+03 2.36379761e+03 2.55281714e+03 1.02862476e+03
      2.11513184e+03 1.99672812e+04 7.13916321e+02 1.28460754e+02
      1.04217725e+03 2.10363418e+04 2.39144707e+04 3.07467188e+03
      1.36671033e+03 2.02890271e+03 2.31485498e+03 3.12165253e+02
      6.59874451e+02 4.21519971e+03 4.08029614e+03 7.77872437e+02
      1.28139664e+02 1.04926201e+02 2.50762344e+04 1.47433350e+04
      3.20059590e+04 7.17825625e+04 7.45204141e+04 2.77622852e+04
      1.74367129e+04 4.72425195e+04 3.85166094e+04 2.27196699e+04
      2.91443262e+04 7.85121406e+04 9.04646328e+04 3.41342070e+04
      1.17748633e+04 1.88004922e+04</_>
    <_>
      3.42723926e+03 1.08745508e+03 1.43688489e+03 2.39317700e+03
      1.42618262e+03 7.65506363e+01 0. 0. 60. 0. 0. 0. 4.89437775e+02
      2.55148071e+02 2.07908691e+02 9.04843262e+02 4.46868242e+04
      1.77345361e+03 4.63753265e+02 1.88792053e+02 1.17201819e+03
      8.81868347e+02 1.63496326e+03 1.55249072e+03 3.15600391e+03
      1.16229688e+03 1.20585254e+03 7.00740784e+02 2.73016870e+03
      2.47864990e+03 2.40203101e+03 2.17124805e+04 6.91526123e+02 0. 0.
      4.01439492e+04 4.26836250e+04 2.32198071e+03 4.14352478e+02
      1.02481824e+03 3.21834937e+03 3.45763092e+02 2.24449878e+03
      7.76993164e+03 1.69960781e+04 1.41735254e+03 2.47772430e+02
      2.52982216e+01 2.82669297e+04 2.08678555e+04 3.60653945e+04
      7.78992734e+04 8.11296016e+04 3.72261953e+04 2.18822461e+04
      5.77380586e+04 5.24354766e+04 2.51173867e+04 4.10980508e+04
      8.79048984e+04 1.03314312e+05 3.61894414e+04 2.36052344e+04
      2.54024727e+04</_>
    <_>
      2.10384064e+01 2.59129028e+02 6.82981079e+02 1.20522681e+03
      1.25039868e+03 5.10425903e+02 1.83675766e+02 3.90464233e+02
      5.20911011e+02 1.11785461e+02 1.37720001e+02 1.04524788e+02
      4.45830231e+02 7.11844330e+01 6.37053871e+01 0. 4.78695557e+03
      8.33310840e+03 5.98570898e+03 4.91682953e+02 1.37815210e+03
      4.33003815e+02 5.02192108e+02 3.42548431e+02 7.81782104e+02
      2.94146118e+02 8.58590759e+02 2.03892883e+03 2.43905493e+03
      6.31467957e+02 9.20168152e+02 9.15969531e+03 9.43852905e+02
      5.16962842e+03 1.00959717e+04 3.04114136e+03 3.23898438e+03
      1.26885596e+04 3.08211890e+03 1.27364453e+03 3.73939636e+02
      6.76829285e+02 8.30717896e+02 1.11435107e+03 1.21314636e+03
      6.37761780e+02 4.94924927e+02 3.05881134e+02 7.78728223e+03
      8.14024902e+03 5.88943506e+03 2.42279102e+03 4.75657715e+03
      1.37678203e+04 1.30439443e+04 1.80965273e+04 2.24907891e+04
      4.18301416e+03 2.12781396e+03 1.56513721e+04 9.20013477e+03
      4.61187109e+03 1.30035576e+04 1.39597871e+04</_>
    <_>
      4.77547070e+03 2.34425488e+03 8.41925537e+02 2.61341187e+02
      4.81577209e+02 0. 2.05275436e+02 2.25175464e+03 4.23678125e+03
      3.81540344e+02 9.90858231e+01 5.97444092e+02 9.21762329e+02
      3.30686432e+02 3.46173657e+03 2.75942139e+03 1.01983467e+04
      1.25245625e+04 4.93531543e+03 1.02512244e+03 2.71615405e+03
      6.15347473e+02 6.92194275e+02 1.21395349e+03 2.01855652e+03
      4.59912018e+02 1.47321960e+03 2.83758960e+03 4.62832129e+03
      4.27323779e+03 3.09346289e+03 4.98648438e+03 1.12116719e+04
      5.53334277e+03 4.39255322e+03 4.66137988e+03 4.78075732e+03
      7.48201172e+03 5.83319678e+03 4.55789258e+03 7.24348242e+03
      2.65497217e+03 2.18952417e+03 2.36778296e+03 2.20436426e+03
      2.36547290e+03 1.33387329e+03 7.70524316e+03 19988. 1.61527559e+04
      1.40298936e+04 1.08569033e+04 1.42266309e+04 1.88649531e+04
      1.61896953e+04 2.10032188e+04 2.71780020e+04 1.68724258e+04
      5.51555322e+03 2.97242109e+04 2.44372383e+04 1.79582148e+04
      1.78614277e+04 1.57420410e+04</_>
    <_>
      2.89040747e+03 7.09492554e+02 2.28056299e+03 1.63848035e+03
      2.36172778e+03 2.44423706e+02 2.02390945e+02 1.37068741e+02
      2.33209076e+02 6.14003296e+01 1.23174675e+02 1.12008926e+02 0.
      1.51340195e+02 1.02859123e+02 2.60609985e+03 2.45702500e+04
      4.19651074e+03 2.32701465e+03 4.25718213e+03 4.25016064e+03
      1.15321753e+03 7.44890137e+02 8.93051392e+02 6.53555603e+02
      1.37922290e+03 2.00257678e+03 4.07449316e+03 3.55468384e+03
      2.36552637e+03 4.61641064e+03 2.40895000e+04 1.92701794e+03
      5.68632935e+02 2.19952710e+03 1.50481572e+04 1.20706055e+04
      2.42905884e+03 1.75866565e+03 2.34314014e+03 3.05319141e+03
      8.76915161e+02 3.76455597e+02 6.78452271e+02 6.74673584e+02
      4.08377258e+02 7.57801880e+02 1.57919287e+03 4.57980078e+03
      6.47118506e+03 1.03483037e+04 4.25202695e+04 4.34002383e+04
      1.16887451e+04 7.65751904e+03 2.15290918e+04 2.04276738e+04
      9.44669141e+03 1.17699541e+04 4.20436953e+04 4.91531797e+04
      1.40023643e+04 5.33117969e+03 3.72695776e+03</_>
    <_>
      1.55258679e+03 1.09927832e+03 2.35290112e+03 8.91082520e+03
      5.44219727e+02 4.80208282e+01 2.70185127e+01 0. 86. 1.44222050e+01
      6.19628220e+01 1.45602188e+01 48. 1.42126694e+01 0. 2.49952612e+03
      1.76440957e+04 2.26856763e+03 9.02569031e+02 3.41902313e+02
      1.68019263e+03 6.20540405e+02 3.14658179e+03 6.68160254e+03
      2.37220703e+03 3.18405640e+02 1.36893848e+03 3.26734473e+03
      3.50968164e+03 2.20811328e+03 2.56343994e+03 1.99773594e+04
      4.21858337e+02 4.37601051e+01 6.41560211e+01 3.52571719e+04
      1.89639414e+04 1.23530859e+03 7.59068115e+02 6.38786743e+02
      5.25303174e+03 1.43468640e+03 1.93889807e+03 4.66684961e+03
      2.36820142e+03 2.95577393e+03 2.19730811e+03 4.05221901e+01
      4.07997891e+04 2.41391895e+04 1.07657900e+04 2.08897305e+04
      1.47218965e+04 5.89254688e+03 4.84116699e+03 2.50760742e+04
      4.36891172e+04 3.11540918e+04 6.80124805e+03 3.99251641e+04
      2.42419727e+04 8.99679199e+03 9.07258691e+03 1.03543232e+04</_>
    <_>
      4.84096191e+02 3.51846741e+02 1.46237231e+03 4.49597803e+03
      2.07211475e+03 1.44222050e+01 7.21110249e+00 1.77200451e+01 60. 0.
      7.56105042e+02 4.16272339e+02 6.54757202e+02 8.59233765e+02
      2.50143890e+02 5.89223694e+02 5.56809229e+03 1.06388330e+03
      1.34158203e+03 6.33494263e+02 1.66916199e+03 3.00807190e+02
      1.13447266e+02 9.70463791e+01 5.75224854e+02 9.19238815e+01
      5.55585999e+02 1.79420120e+02 2.64575122e+03 2.03835950e+03
      1.89319409e+03 1.13564424e+04 284. 2.30692902e+02 2.81168427e+02
      2.12885801e+04 4.57674805e+03 7.33902710e+02 1.86462244e+03
      8.63047852e+02 1.59798608e+03 6.87047485e+02 1.33095825e+03
      5.49092041e+03 3.54895947e+03 2.64462036e+02 5.42033195e+01
      6.59242020e+01 2.14430835e+03 2.39392114e+03 6.35241455e+03
      1.84868984e+04 1.81992168e+04 7.24060498e+03 5.19002344e+03
      8.09435400e+03 7.17918311e+03 4.21083057e+03 9.20279785e+03
      3.32839297e+04 1.69777422e+04 5.43524561e+03 3.16583301e+03
      1.92022705e+03</_>
    <_>
      0. 0. 0. 0. 0. 0. 0. 0. 0. 0. 0. 0. 0. 0. 0. 0. 1.89197058e+03
      2.13625244e+03 1.32103296e+03 5.22148865e+02 1.91297852e+03
      1.10872549e+04 5.34603174e+03 1.19804541e+03 2.02502087e+03
      1.12110264e+04 1.23821650e+04 2.51522144e+03 7.28397461e+03
      2.92077441e+03 2.90943481e+03 3.38116309e+03 1.19186267e+03
      1.32803296e+03 1.17274622e+03 7.60829163e+02 5.06355347e+02
      5.68426819e+02 4.78957458e+02 5.63729126e+02 1.57170471e+03
      7.67563672e+03 1.28888613e+04 3.85186963e+03 1.74353748e+03
      1.55612715e+04 5.83107617e+03 3.14020844e+02 1.53236338e+04
      4.35681641e+04 5.65096172e+04 3.87885352e+04 2.54309824e+04
      4.08866875e+04 2.56245508e+04 1.39316982e+04 2.03230430e+04
      3.95793125e+04 6.26409727e+04 5.83969648e+04 3.28167383e+04
      7.77527109e+04 3.08571133e+04 1.49412207e+04</_>
    <_>
      1.59290845e+03 2.84668427e+02 3.07414154e+02 1.00215039e+03
      2.72934521e+03 1.81264633e+02 8.48528099e+00 7.82304306e+01
      6.87354980e+02 1.27279224e+01 5.83095169e+00 1.57880676e+02
      6.09439011e+01 9.10377655e+01 1.40121109e+02 5.76391052e+02
      2.71195862e+02 0. 0. 0. 12. 0. 0. 0. 2.56270874e+02 1.47627899e+02
      1.96249146e+02 5.42788147e+02 1.52153625e+03 2.26325073e+02
      1.30698120e+02 4.51220551e+01 0. 0. 0. 0. 4.50520355e+02
      5.41605225e+02 3.53580383e+02 3.40223053e+02 1.66207849e+03 0. 0.
      0. 98. 0. 0. 0. 0. 0. 0. 0. 0. 0. 0. 0. 5.56980225e+02
      6.33688293e+02 0. 0. 128. 0. 0. 0.</_>
    <_>
      1.78128857e+03 5.91727417e+02 1.29314258e+03 3.13035645e+02
      2.85001270e+03 7.18470612e+01 1.74928570e+01 1.05780914e+02
      1.57043701e+02 1.02462318e+02 2.71637878e+02 1.82451050e+02
      7.17321320e+01 3.24262817e+02 1.05001633e+02 6.28257568e+02
      2.88015381e+02 0. 0. 0. 10. 0. 0. 0. 82. 1.75310318e+02
      1.64176727e+02 2.26242081e+02 1.06419910e+03 3.16689667e+02
      1.20446571e+02 2.29846588e+02 2. 0. 0. 0. 1.00916559e+03 0.
      2.15076736e+02 3.01179352e+02 1.80064380e+03 0. 0. 0. 114. 0. 0.
      0. 0. 0. 0. 0. 0. 0. 0. 0. 5.74417480e+02 6.98288147e+02 0. 0.
      188. 0. 0. 0.</_>
    <_>
      3.16578638e+03 1.03841663e+03 5.50102966e+02 8.32495361e+02
      2.24175928e+03 0. 3.54682961e+01 1.61278336e+02 4.38918518e+02
      4.11265961e+02 3.13049507e+01 0. 2.50332947e+01 4.16173058e+01
      2.43167740e+02 7.64114197e+02 8.25250732e+02 6.53911362e+01 0. 0.
      40. 0. 0. 0. 32. 3.35761536e+02 1.81755219e+02 3.15552185e+02
      1.54897668e+03 2.91828552e+02 1.91446381e+02 8.81753540e+02 0.
      5.82580452e+01 0. 9.00888443e+01 1.83068811e+03 8.35521423e+02
      3.95190491e+02 2.50251877e+02 2.04161841e+03 2.82993896e+02 0.
      9.90212250e+01 174. 0. 1.42371307e+02 1.42226578e+02
      1.92353840e+01 0. 0. 0. 2.10262966e+01 0. 0. 0. 1.67181311e+03
      7.68094971e+02 3.23358856e+02 3.32935333e+02 164. 0. 0. 0.</_>
    <_>
      92. 0. 1.68062103e+02 1.05365771e+03 2.25002734e+03 2.63527618e+02
      1.65567261e+02 4.59585400e+03 2.47137842e+03 6.30074280e+02
      3.41886230e+02 7.76730225e+02 6.64729858e+02 1.41978668e+02
      6.42028046e+01 0. 9.46954590e+02 1.16454216e+02 3.91380829e+02
      2.34045349e+02 5.51856262e+02 1.27780991e+02 5.22951416e+02
      5.30103088e+02 3.44869324e+02 2.27742020e+02 1.11194995e+03
      8.52264343e+02 1.62482385e+03 4.77549896e+02 1.01230324e+02
      9.58050293e+02 3.52721375e+02 1.00452011e+02 2.18928741e+02
      5.51080017e+02 2.65715729e+02 8.47947159e+01 1.52750488e+02
      7.20313843e+02 7.60698547e+02 3.17207153e+02 1.12624275e+02
      2.27941208e+02 3.95607605e+02 2.84253387e+01 4.07185440e+01 0.
      1.95913681e+02 5.67978859e+01 2.90394012e+02 4.39719116e+02
      5.72033752e+02 1.66247101e+02 0. 7.28162659e+02 9.81678406e+02
      4.30662781e+02 4.56445190e+02 1.28461511e+03 5.92358276e+02
      3.53142395e+02 5.32634949e+02 3.24031189e+02</_>
    <_>
      1.81677417e+03 5.67127625e+02 9.57078857e+01 1.21231580e+03
      1.11039929e+03 5.01419556e+02 0. 7.75241928e+01 66. 6.37091614e+02
      7.17916931e+02 1.48008508e+03 1.96834314e+03 1.88147476e+02
      6.73144653e+02 4.38766943e+03 2.13305127e+03 0. 4.24499741e+01
      3.40954376e+02 3.10190002e+02 2.51151733e+02 7.27186356e+01 0.
      194. 1.34758072e+02 3.19055450e+02 1.55110062e+02 352.
      9.98753510e+01 3.98246155e+01 6.47539673e+02 0. 0. 0. 0. 34. 0.
      1.23943535e+02 2.27618457e+03 4.45762988e+03 2.24854858e+02
      1.35731323e+02 0. 2.53815109e+02 0. 0. 0. 0. 0. 0. 0. 0. 0. 0.
      3.69740662e+02 2.35674927e+03 3.74406097e+02 6.82495422e+01 0.
      186. 0. 0. 0.</_>
    <_>
      6. 0. 0. 8.37741394e+02 8.33799023e+03 3.57527856e+03
      6.60542603e+02 2.62944092e+02 9.63603027e+02 5.87346741e+02
      4.92145752e+02 8.57401794e+02 8.61012939e+02 0. 3.80788651e+01
      6.59841248e+02 9.02179077e+02 8.48646011e+01 1.20830460e+01
      4.53910797e+02 9.06004028e+02 5.19093994e+02 5.34039001e+02 0.
      5.70542114e+02 1.35506454e+02 5.80008362e+02 9.87905518e+02
      1.94701929e+03 0. 5.16274841e+02 3.40358643e+02 316.
      3.22490311e+01 8.25899124e+01 1.34913498e+02 1.76943359e+03
      7.87022156e+02 1.43959888e+03 5.59720093e+02 2.58950989e+02 0. 0.
      0. 4.51398865e+02 6.08276215e+01 0. 2.49905731e+02 16.
      1.66438660e+02 0. 0. 0. 0. 2.19426529e+02 5.14772095e+02
      1.62528101e+03 1.93952600e+03 3.98444641e+02 0. 3.04767761e+02 0.
      0. 0.</_>
    <_>
      1.89963831e+03 1.25508350e+03 8.11362000e+02 8.01118347e+02
      1.63874597e+03 1.05442188e+03 8.26578369e+02 4.26214661e+02
      2.64929688e+02 0. 0. 1.22257553e+02 2.34776596e+02 2.21207016e+02
      5.93982727e+02 1.63379980e+03 1.58544568e+03 5.76078955e+03
      5.93363330e+03 3.77270117e+03 6.14610010e+03 1.14530859e+03
      1.83441296e+03 1.04420581e+03 1.55287793e+03 5.42492676e+03
      7.84463721e+03 3.95258887e+03 5.66018164e+03 5.81918213e+03
      6.07453320e+03 1.30885095e+03 1.57047986e+03 3.28042407e+03
      5.21456592e+03 3.67802783e+03 3.76168457e+03 6.29056787e+03
      4.28379199e+03 1.09143982e+03 4.29325586e+03 1.79850903e+03
      3.47755884e+03 3.66552051e+03 2.80179053e+03 1.11962744e+03
      9.88091370e+02 5.13314514e+02 1.19830723e+04 9.08842383e+03
      9.63643164e+03 9.77004199e+03 6.53187109e+03 1.25161631e+04
      2.14186152e+04 1.21152061e+04 1.36783340e+04 2.72651582e+04
      2.50615488e+04 1.04360371e+04 7.62199121e+03 1.27968799e+04
      9.05787500e+03 1.35858438e+04</_>
    <_>
      2.11098071e+03 1.97661853e+03 5.13885156e+03 8.00499878e+01
      2.72818787e+02 8.78179932e+01 5.96657372e+01 1.04481995e+03
      5.17577271e+02 4.38688965e+01 1.28358963e+02 1.38604919e+02
      1.94164810e+02 0. 2.42046921e+02 2.15278992e+02 7.73801697e+02
      8.34683289e+02 2.49433984e+03 5.06863159e+02 7.94537109e+02
      1.23975800e+02 3.18067413e+02 4.20214874e+02 1.44632593e+03
      1.24371544e+02 4.49885162e+02 3.74450714e+02 1.49803418e+03
      2.29379077e+03 8.39292090e+03 9.99319214e+02 4.08814087e+02
      4.47213602e+00 2.57572290e+03 6.39066040e+02 1.41322546e+03
      1.78798022e+03 8.10260742e+03 3.76980621e+02 1.34355322e+03
      1.83045874e+03 3.08118164e+02 3.73347992e+02 4.06001129e+02
      2.83196030e+01 1.87325073e+02 1.06195898e+03 1.28017322e+03
      1.20964844e+03 1.55122607e+03 1.05567908e+03 1.67349707e+03
      1.30804529e+03 4.84767041e+03 6.23533447e+02 2.59074023e+03
      2.23823535e+03 1.21551621e+04 6.51037476e+02 2.54818237e+03
      9.91302795e+02 8.53314758e+02 1.44950024e+03</_>
    <_>
      2.56468830e+01 2.10847321e+02 1.04262512e+03 0. 5.52733650e+01 0.
      3.14318867e+01 0. 420. 6.47097168e+01 4.35871735e+02
      5.16277393e+03 9.55139282e+02 2.69088173e+01 1.56205006e+01
      7.60595093e+01 1.13555225e+03 2.61249878e+03 7.74499170e+03
      3.76563599e+02 4.24161407e+02 3.06853714e+01 3.36173706e+01
      3.89057808e+01 1.06313896e+02 6.01406212e+01 2.85539551e+02
      1.28275436e+02 7.85705688e+02 1.47149243e+03 1.01218330e+04
      1.16532275e+03 1.02370996e+03 3.48479907e+03 6.37401660e+03
      1.35163818e+03 1.58651416e+03 2.93886255e+03 3.31450122e+03
      1.78895264e+03 1.96847034e+03 9.38382812e+02 2.02438293e+02
      5.43473389e+02 1.96519928e+02 4.11156006e+01 4.34753815e+02
      8.60632751e+02 2.76579468e+03 2.48453955e+03 2.96543970e+03
      2.44369141e+03 3.82339014e+03 2.06286426e+03 1.04338164e+04
      2.45490332e+03 8.00238770e+03 8.27558984e+03 8.04203711e+03
      2.70711279e+03 5.25658691e+03 3.49747900e+03 7.52437061e+03
      4.98327002e+03</_>
    <_>
      62. 4.24264050e+00 8.94427204e+00 1.75339661e+03 1.15290002e+03
      1.23004105e+02 0. 2.28499283e+02 1.01148560e+03 5.70756055e+03
      2.00295972e+03 3.11171265e+03 6.26193359e+02 5.46259995e+01 0. 0.
      9.15921082e+02 6.04767517e+02 7.47255066e+02 6.19111938e+02
      1.53781750e+03 3.88063782e+02 4.01961621e+03 4.14855420e+03
      5.51098145e+03 1.13998193e+03 1.07209766e+03 1.49813452e+03
      9.74260559e+02 7.45047058e+02 1.10184973e+03 7.79517578e+02 98.
      4.24264050e+00 1.15677600e+03 1.63988525e+03 9.30898010e+02
      7.10428833e+02 4.84161453e+01 1.14017534e+01 100. 0.
      9.60233536e+01 4.93573145e+03 3.33291260e+03 1.41307361e+03
      2.86300537e+03 2.53185715e+02 2.52778833e+03 4.01386621e+03
      1.06990430e+03 1.80401489e+02 9.91960999e+02 2.14567719e+02
      7.87377747e+02 7.27331360e+02 1.58923962e+03 8.00382019e+02
      1.78117664e+03 1.28957983e+03 1.95413599e+03 8.00227173e+02
      1.02883325e+03 1.92722693e+03</_>
    <_>
      1.74237213e+02 5.18064461e+01 7.64672546e+01 5.08120270e+01
      1.13107025e+02 8.43226395e+01 6.31680641e+01 4.79910049e+01
      8.59941864e+01 6.38157616e+01 1.06155937e+02 9.47217407e+01
      1.29245605e+02 3.98246155e+01 2.52035309e+02 2.23178726e+02
      6.27714551e+03 3.02148804e+03 3.89238965e+03 2.89194409e+03
      5.04614795e+03 2.60612622e+03 4.08513867e+03 5.55291357e+03
      7.94684961e+03 3.51016895e+03 2.14704932e+03 9.35569519e+02
      2.68413818e+03 3.51065869e+03 6.87052344e+03 3.77341553e+03
      8.94702759e+02 2.09156812e+03 3.70353296e+03 1.66949927e+03
      1.06806641e+04 1.49858606e+03 1.65037952e+03 2.42048355e+02
      9.32096191e+02 6.26462524e+02 2.74335596e+03 9.32047852e+02
      1.13003848e+04 1.08837866e+03 7.92211792e+02 3.07123932e+02
      5.09256680e+04 1.95411250e+04 3.16207910e+04 1.72292285e+04
      3.95156836e+04 2.38914746e+04 3.06399375e+04 2.64216270e+04
      2.84981367e+04 1.16926523e+04 1.20223994e+04 1.38266953e+04
      2.07150547e+04 1.52286250e+04 2.40717891e+04 2.73384629e+04</_>
    <_>
      4.77329254e+02 2.58191132e+02 1.94547791e+02 3.42624023e+02
      6.10264465e+02 4.27003845e+02 8.13406006e+02 3.26049622e+02
      2.82441711e+02 5.95015831e+01 0. 0. 166. 5.86685600e+01
      8.22305847e+02 5.36804993e+02 5.75503113e+02 5.35350342e+01
      4.14004822e+01 0. 4.48146362e+01 1.02956305e+01 2.01471844e+01
      2.05655136e+02 2.19658630e+02 4.74358597e+01 0. 2.15870323e+01
      1.11462593e+02 4.32841522e+02 1.91646387e+03 8.95820435e+02 74.
      1.93431854e+02 5.66392059e+01 6.72504120e+01 1.81668137e+02
      4.59493713e+02 6.68247925e+02 4.74511597e+02 4.31117004e+02
      4.43136597e+01 8.68976288e+01 1.14606857e+02 2.18503998e+02
      3.88460999e+01 1.04496368e+02 0. 46. 1.14017534e+01 6.65767212e+01
      4.00249939e+01 1.10173584e+02 3.60879745e+01 1.02080658e+03
      4.93874268e+02 8.36851379e+02 5.25420959e+02 2.70185127e+01
      1.01980391e+01 1.51622772e+01 0. 0. 0.</_>
    <_>
      6.66539307e+02 8.46018799e+02 5.97539795e+02 5.38575592e+01
      1.44138855e+02 4.93963547e+01 0. 0. 48. 0. 5.83095169e+00 0.
      5.65269127e+01 6.74041595e+01 4.17799561e+02 6.03953552e+02
      5.85768250e+02 1.00565262e+02 7.36333237e+01 1.08068909e+02
      4.93044128e+01 0. 0. 7.07106829e+00 6.17050552e+01 2.19748062e+02
      9.41812668e+01 1.10537590e+02 3.78747040e+02 9.25941040e+02
      6.92395630e+02 5.61672607e+02 2.47856125e+02 8.41700897e+01 0. 0.
      4.54932343e+02 8.50047424e+02 2.44575439e+03 4.63437073e+02
      3.47397644e+02 0. 1.23233398e+02 1.00584442e+02 2.94412567e+02
      1.00763153e+02 1.44206879e+02 2.25667679e+02 2.07657761e+02
      1.17916229e+02 7.88683777e+01 1.48182907e+02 2.72796051e+02
      1.26944313e+02 9.02170227e+02 1.62482898e+03 1.01618573e+03
      1.30030273e+02 5.36226311e+01 5.26443558e+01 1.46144791e+02
      6.08752686e+02 1.17784180e+03 4.37544037e+02</_>
    <_>
      6.70011475e+02 7.51205292e+01 2.50491364e+02 1.62692822e+03
      1.46601538e+03 1.19274622e+03 1.01940472e+03 6.86454041e+02
      7.79420898e+02 5.79857544e+02 1.58700974e+02 1.08204431e+03
      1.75952222e+03 2.09509351e+03 1.34464465e+03 2.95877380e+02
      8.45935913e+02 4.51600098e+02 1.22905859e+03 1.21751208e+03
      3.40894775e+03 4.37400781e+03 3.89989575e+03 1.15733606e+03
      1.77531140e+03 3.17426343e+03 1.58369800e+03 4.21786328e+03
      4.21948096e+03 1.11441357e+03 1.20718164e+03 3.64963135e+02
      3.87214935e+02 3.73042023e+02 4.03713348e+02 5.88679871e+02
      1.96962341e+03 1.28462170e+03 1.69192102e+03 4.22329163e+02
      1.45966052e+03 7.01223511e+02 1.30130811e+03 1.34605334e+03
      1.22826208e+03 1.99883203e+03 9.02831238e+02 1.12020532e+03
      4.94523486e+03 3.89211938e+03 6.50951562e+03 2.15256689e+03
      3.20764404e+03 1.17215100e+03 2.55897144e+03 1.05923181e+03
      9.78834570e+03 2.00927710e+03 1.04254028e+03 5.38870422e+02
      1.70894080e+03 9.78187439e+02 8.86245972e+02 5.11513672e+03</_>
    <_>
      4.95212451e+03 4.60130273e+03 8.20874512e+02 2.45375342e+03
      1.24555566e+03 0. 8.64522934e+01 2.85945264e+03 1.04276843e+03
      4.68734497e+02 4.27948608e+02 3.18709900e+02 3.38555176e+03
      8.65161621e+02 1.32521167e+03 9.35136780e+02 4.19069727e+03
      2.64726611e+03 1.14884839e+03 1.05701685e+03 4.99020020e+02
      1.04155457e+03 6.13996521e+02 7.77671265e+02 1.41475830e+03
      4.35836621e+03 0. 2.25312836e+02 3.64359937e+03 9.87573059e+02
      2.37065384e+02 2.18259473e+03 4.71800446e+02 9.84134644e+02
      2.04311926e+03 1.16619034e+02 1.08008521e+03 1.90996924e+03
      1.18571655e+03 1.26568469e+03 2.56495874e+03 2.21410815e+03
      2.21551392e+03 6.99405457e+02 2.21382324e+03 0. 1.39764001e+03
      1.00856390e+03 3.98165192e+02 5.45656738e+03 2.65693024e+02
      2.71661568e+01 192. 0. 4.52769279e+01 5.96033386e+02
      7.39234717e+03 1.80182227e+03 2.33807617e+02 6.20322456e+01
      1.22177124e+03 0. 0. 1.10887352e+02</_>
    <_>
      8.44312695e+03 1.66933533e+03 8.74279846e+02 1.64440063e+03
      1.89533691e+03 0. 1.96099701e+02 1.46996780e+02 2.26600159e+02
      1.39577438e+02 2.23724533e+02 2.48681976e+02 2.30831329e+02
      4.15750427e+02 2.81780052e+01 5.46650879e+02 1.82422539e+04
      1.06994217e+02 2.55486908e+02 1.56068909e+03 2.19024609e+03
      2.56890479e+03 1.15335168e+03 1.60949829e+03 1.02515344e+03
      1.29710718e+03 1.61508752e+03 1.95709595e+03 7.05646143e+03
      1.39730371e+03 7.44617493e+02 1.00224939e+03 6.84702820e+02
      4.31537476e+02 3.92748016e+02 1.97955017e+03 1.17359092e+04
      1.07638196e+03 5.10461365e+02 8.49619324e+02 4.39967383e+03
      1.47232269e+02 6.35051758e+02 1.00476166e+03 1.34706958e+03
      3.95107208e+02 3.77084808e+02 4.32412842e+02 2.76922827e+03
      3.55778809e+03 3.12683496e+03 3.42270947e+03 4.15901562e+03
      2.48715649e+03 1.68213647e+03 2.86296558e+03 3.26104863e+04
      2.37170044e+03 2.12458203e+03 5.33962695e+03 8.53643262e+03
      2.90772534e+03 2.30164697e+03 4.68129248e+03</_>
    <_>
      7.25010791e+03 8.49507935e+02 1.13255432e+03 5.03952344e+03
      4.67950342e+03 8.56037369e+01 4.47213602e+00 1.61554947e+02
      3.01282623e+02 8.26196060e+01 4.68904236e+02 2.26673706e+02
      3.93079224e+02 0. 2.50922287e+02 1.59840808e+03 2.02176406e+04
      2.17492676e+02 4.80061127e+02 2.06992456e+03 3.94058862e+03
      1.34346875e+03 1.60110571e+03 1.51340442e+03 1.41801953e+03
      1.01745996e+03 2.40011646e+03 3.43807886e+03 3.42359668e+03
      8.80342590e+02 7.12862671e+02 1.14153115e+04 1.31975793e+03
      7.39379333e+02 1.95126358e+02 1.72779629e+04 1.35405107e+04
      1.83924902e+03 8.68344421e+02 3.53939917e+03 2.84582056e+03
      5.99303345e+02 1.27251819e+03 2.34123242e+03 1.94724695e+03
      1.44501794e+03 5.50151672e+02 4.37970886e+02 6.77374121e+03
      6.48939795e+03 8.16837646e+03 1.27918965e+04 8.93158301e+03
      6.27385352e+03 5.32075928e+03 1.13172578e+04 3.17906953e+04
      5.14064648e+03 6.11413525e+03 1.44675781e+04 1.60391211e+04
      6.59233740e+03 5.18192041e+03 8.78866602e+03</_>
    <_>
      2.02484570e+01 1.57858438e+01 7.61577368e+00 3.99301758e+01 58.
      2.50599289e+01 2.68485756e+01 3.26162671e+03 9.20305469e+03
      3.93270416e+01 0. 4.25320206e+01 16. 0. 2.92902985e+01
      2.29837723e+01 6.90091187e+02 6.36039917e+02 5.92693298e+02
      2.65800110e+02 7.82468994e+02 8.39655228e+01 2.01435516e+02
      1.37710815e+02 1.56784619e+03 2.45106982e+03 1.18861108e+03
      1.43480005e+03 3.09648193e+03 5.13788879e+02 1.30301526e+03
      7.90862549e+02 4.42937891e+03 1.70011316e+03 1.37980359e+03
      1.34684497e+03 5.31612915e+02 1.43482227e+03 1.15748499e+03
      3.54346777e+03 3.30514600e+03 8.02492554e+02 1.89689560e+02
      2.96876709e+02 1.89731964e+02 7.14188538e+02 1.81967578e+03
      2.92866797e+03 5.93521484e+03 4.87561182e+03 2.39739355e+03
      2.20720996e+03 2.63562109e+03 1.16476038e+03 2.73137378e+03
      4.53218701e+03 7.63047461e+03 8.51952344e+03 3.63979492e+03
      3.10021118e+03 5.53150098e+03 5.16186133e+03 5.66763770e+03
      4.48863867e+03</_>
    <_>
      1.37988550e+03 1.02157184e+03 1.50244958e+03 2.39480640e+03
      4.84570947e+03 8.98153534e+01 0. 0. 46. 2.88444099e+01
      1.08255470e+02 8.19296722e+01 5.95339050e+02 2.74071350e+02
      5.13413315e+01 6.62060791e+03 4.03027759e+03 4.78421478e+02
      2.57704498e+02 4.56966064e+02 6.04757385e+02 0. 2.19830933e+02 0.
      1.58069611e+02 3.36126709e+02 3.13751526e+02 3.18414703e+02
      3.75771118e+02 2.92092255e+02 4.45127991e+02 6.49259961e+03 98.
      4.24264050e+00 0. 2.80956543e+03 1.69268970e+03 9.03225098e+02
      5.87278503e+02 3.15781885e+03 1.98124060e+03 1.56205006e+01
      6.64503708e+01 1.27293884e+02 1.36701324e+02 3.44093018e+01
      4.48478813e+01 0. 8.07323837e+01 1.14017534e+01 0. 2.73493469e+02
      5.52558838e+02 1.25299644e+02 3.68781776e+01 1.73998669e+03
      2.84015234e+03 6.94525681e+01 0. 2.42416550e+02 3.14481995e+02
      1.77153534e+02 7.82432098e+01 1.02693718e+02</_>
    <_>
      210. 5.94095557e+03 1.34509492e+04 8.80883850e+02 1.19040112e+03
      5.60682678e+02 0. 1.08416214e+02 1.05088005e+02 8.01049805e+01
      2.53152588e+02 8.80209351e+02 4.10310394e+02 2.54950981e+01
      2.70577888e+01 0. 1.14679932e+03 2.05536450e+03 3.41118628e+03
      4.06966016e+03 2.36729272e+03 4.33683380e+02 8.08341064e+01
      2.04505630e+02 1.07643335e+03 8.42855713e+02 8.28520703e+03
      9.89486133e+03 2.44937671e+03 1.93268845e+02 5.16705566e+02
      4.89915253e+02 2.33374487e+03 1.02543811e+03 7.38639697e+03
      2.29233379e+04 4.45967773e+03 2.35189484e+02 1.59183655e+02
      1.74754883e+02 1.09807654e+03 1.33333069e+03 7.98254639e+02
      9.52723750e+04 2.90524976e+03 1.19201439e+02 2.26274166e+01
      4.70553474e+01 5.57995850e+03 7.47549463e+03 6.15245557e+03
      1.43106484e+04 8.09982422e+03 1.22647876e+03 1.02727478e+03
      1.49974780e+03 4.77901270e+03 8.56747656e+03 4.40980518e+03
      9.39530469e+03 4.86716797e+03 1.06973303e+03 1.64470374e+03
      2.06645679e+03</_>
    <_>
      2.60693695e+02 2.70185127e+01 4.19971886e+01 8.53713608e+01
      7.57067184e+01 3.89376183e+01 4.50884132e+01 5.36250916e+01
      1.23885040e+02 1.69640106e+02 7.71239014e+01 4.38249397e+01
      1.95498596e+02 7.18787079e+01 9.14722672e+01 6.00314407e+01
      1.02255408e+03 5.59938232e+02 2.82375610e+02 1.81331009e+02
      2.05042949e+04 6.82535034e+02 8.25276428e+02 7.01473572e+02
      1.51967505e+03 3.38585754e+02 6.58028503e+02 8.60920532e+02
      1.08961992e+04 3.07628326e+02 8.15219238e+02 9.75972534e+02
      1.52781482e+03 2.91463287e+02 8.85686646e+01 0. 2.66333771e+02
      9.02786621e+02 1.10261982e+04 2.23635352e+03 3.87487378e+03
      2.66203662e+03 1.46896887e+03 1.53472144e+03 1.34432654e+03
      2.52908325e+03 6.37904590e+03 1.48533203e+03 8.34967480e+03
      3.08760107e+03 2.17785083e+03 2.61306226e+03 1.06475602e+05
      7.24617676e+03 3.86090859e+04 1.69534355e+04 1.18449229e+04
      4.28314355e+03 3.54687915e+03 8.02506055e+03 2.84600293e+04
      9.04085742e+03 2.29362656e+04 1.30054717e+04</_>
    <_>
      7.02654248e+03 4.10449127e+02 5.39073257e+01 1.26491108e+01 36.
      1.84390888e+01 9.16556854e+01 1.42129211e+02 7.08162939e+03
      2.57463867e+02 0. 0. 4. 0. 5.72378082e+01 0. 5.56623633e+03
      1.27768420e+03 2.54653000e+02 6.46197388e+02 6.12150146e+03
      9.65350708e+02 7.02328186e+01 4.64846710e+02 5.29124658e+03
      7.96167908e+02 9.77605713e+02 2.89960840e+03 1.34745996e+04
      1.70620850e+03 1.24424988e+03 3.25461377e+03 6.37875549e+02
      1.01555328e+02 9.53038559e+01 6.20102654e+01 1.02580353e+02
      2.77884865e+01 9.89949417e+00 1.10453606e+01 2.16793701e+02
      9.34911880e+01 6.15679245e+01 1.79787338e+02 5.58723999e+02
      2.03086319e+02 3.56301910e+02 1.28643082e+02 1.78789172e+03
      4.19002808e+02 3.54446136e+02 1.38296399e+03 1.87142949e+04
      1.52543945e+04 4.91652832e+03 1.11838318e+03 1.22497522e+03
      1.86759546e+03 1.94155725e+03 1.01589932e+04 4.99437852e+04
      4.70521719e+04 6.57843506e+03 1.06587549e+03</_>
    <_>
      444. 6.53824524e+02 7.08138281e+03 1.36590039e+03 7.96126709e+02
      5.74282150e+01 3.80788651e+01 1.11157555e+02 9.70107483e+02
      5.38272461e+02 5.14231738e+03 2.68764551e+03 1.20044897e+03
      4.97393188e+01 8.72353134e+01 0. 7.61005310e+02 1.05086426e+02
      5.45883301e+02 1.16673320e+04 1.83923438e+03 2.44222050e+01
      8.27052917e+01 1.93629608e+01 1.37565094e+02 2.28449188e+02
      1.38449023e+03 6.48490540e+02 1.67166016e+03 7.61156540e+01
      1.63745331e+02 7.32622528e+01 1.11680859e+03 3.23557922e+02
      3.81237946e+02 3.94127380e+02 2.67765472e+02 1.67702423e+02
      2.13276932e+02 9.78398315e+02 2.31078003e+03 2.13711108e+03
      3.12880347e+03 3.77730298e+03 5.76588086e+03 1.17294153e+03
      4.26365814e+02 3.79178558e+02 3.26927295e+03 1.46484448e+03
      6.80420996e+03 7.15475078e+04 6.98193555e+03 2.10866772e+03
      1.53419031e+03 1.09848853e+03 4.92445459e+03 3.63827441e+03
      1.06179268e+04 3.93834609e+04 7.45544678e+03 2.35280029e+03
      2.33100513e+03 2.32897827e+03</_>
    <_>
      1.49124976e+03 3.86780298e+03 2.20504395e+02 4.02844048e+01
      1.13067456e+03 2.10321827e+01 0. 2.30217285e+01 7.44498779e+02
      3.32320947e+03 5.97264404e+02 6.67532730e+01 5.08698181e+02 0.
      9.24976196e+01 1.70293865e+01 6.87199707e+02 2.31010205e+03
      8.60918274e+02 1.74152617e+04 3.22960034e+03 1.28981842e+02
